svm_type c_svc
kernel_type rbf
gamma 0.03125
nr_class 26
total_sv 1677
rho 0.770153 0.168255 0.36382 0.399874 0.366697 0.447766 0.424701 0.203949 0.150344 0.465901 -0.330056 -0.0924838 0.397711 0.711105 -0.631061 0.0776532 0.163382 0.201561 -0.427405 0.175102 0.00457918 0.145714 -0.228991 -0.477371 -0.662829 -0.213592 -0.260104 -0.10614 -0.10829 -0.102598 -0.159414 -0.0710811 -0.373456 0.183684 -0.648293 -0.562286 -0.159645 0.196466 -0.918348 -0.510299 -0.209951 -0.315148 -0.830254 -0.308808 -0.486375 -0.208556 -0.640213 -0.640701 -0.85356 0.0738337 0.271789 0.208876 0.150951 0.0677813 -0.103672 0.0218857 0.337433 -0.564801 -0.0960887 0.128058 0.359196 -0.531384 -0.114684 0.149085 0.0948906 -0.396272 0.158185 0.0349991 0.165453 -0.207525 -0.386956 -0.682367 0.0192034 0.012709 0.0442369 0.15697 -0.290255 -0.0354374 0.117354 -0.474724 -0.394623 -0.0752604 0.335285 -0.739148 -0.189355 -0.133268 -0.0618508 -0.575199 -0.0394893 -0.227836 -0.0414381 -0.349117 -0.540199 -0.774648 -0.0342345 -0.0187779 -0.00564553 -0.187388 -0.192404 0.113479 -0.588843 -0.465512 0.00969207 0.307466 -0.737046 -0.320542 -0.108021 -0.169509 -0.603892 -0.0794533 -0.380612 -0.0469704 -0.567131 -0.66655 -0.819189 0.0304566 0.0346877 -0.168878 -0.184547 0.061376 -0.614436 -0.535336 -0.0735571 0.224641 -0.80265 -0.394929 -0.245086 -0.109875 -0.670816 -0.0582943 -0.30134 -0.0940791 -0.385564 -0.577682 -0.822227 -0.00304439 -0.10695 -0.143977 0.223341 -0.632659 -0.444138 0.0984063 0.376478 -0.797925 -0.350673 -0.186649 -0.0849713 -0.640321 -0.143655 -0.30443 -0.134601 -0.492693 -0.624161 -0.8195 -0.125263 -0.277511 0.451824 -0.609199 -0.459629 -0.132911 0.521099 -0.863576 -0.341638 -0.0992491 -0.153664 -0.696342 -0.105415 -0.450489 -0.193247 -0.549627 -0.656282 -0.811087 -0.0214386 0.217223 -0.546069 -0.304275 0.238383 0.351438 -0.692024 -0.233817 -0.0285094 0.0161077 -0.507848 0.0495566 -0.155472 0.0595273 -0.274799 -0.490033 -0.753696 0.273337 -0.484351 -0.246743 0.165587 0.278386 -0.577545 -0.0830078 0.0538937 0.0796122 -0.446896 0.0735562 -0.0579749 0.106658 -0.232718 -0.471546 -0.66807 -0.561303 -0.637992 -0.0593397 -0.0276443 -0.762493 -0.686766 -0.295587 -0.194917 -0.70286 -0.11783 -0.404585 -0.142472 -0.514216 -0.639582 -0.907979 0.217811 0.574986 0.813814 -0.274786 0.207392 0.470434 0.479252 0.0517194 0.411268 0.321785 0.449034 0.119801 -0.130123 -0.471651 0.41142 0.590571 -0.489545 0.0422317 0.364559 0.552884 -0.24904 0.343045 0.128009 0.387312 0.0134539 -0.316004 -0.660477 0.306669 -0.748423 -0.286028 -0.169657 -0.025307 -0.499326 -0.113883 -0.326122 -0.123358 -0.374855 -0.581052 -0.785975 -0.879414 -0.495769 -0.289251 -0.284129 -0.676952 -0.392777 -0.552714 -0.297398 -0.692512 -0.71541 -0.88689 0.553268 0.605741 0.653586 0.230871 0.654046 0.60911 0.694034 0.448768 0.0597263 -0.138949 0.195993 0.154885 -0.369162 0.212593 0.0325471 0.209361 -0.135524 -0.363613 -0.644038 0.0327607 -0.438007 0.0193658 -0.0323731 0.0613232 -0.185432 -0.465435 -0.723721 -0.511301 0.055351 -0.152467 -0.0452306 -0.284368 -0.510597 -0.788064 0.482486 0.426744 0.488236 0.265248 -0.125891 -0.37416 -0.166282 -0.0174927 -0.367434 -0.60285 -0.692196 0.290842 -0.258361 -0.500165 -0.632492 -0.363291 -0.621282 -0.701075 -0.442696 -0.53177 -0.178775
label 1 4 11 14 13 6 18 17 2 15 19 8 21 3 0 25 5 24 20 16 7 22 12 10 23 9
probA -5.12165 -4.6653 -4.46738 -5.04762 -4.19411 -5.63581 -3.97692 -3.74377 -3.71993 -4.10585 -4.14952 -3.38174 -4.03312 -4.79154 -3.26819 -3.37894 -4.25465 -4.72777 -2.75228 -3.88374 -4.03468 -3.88865 -5.02997 -9.43986 -0.367585 -5.50234 -4.75265 -4.69867 -4.84785 -5.11704 -5.02966 -4.28642 -5.42285 -4.56253 -4.69186 -5.81492 -5.19762 -5.28762 -4.82454 -4.12937 -5.61811 -5.12615 -4.95519 -5.13404 -5.24675 -5.26065 -6.69997 -11.1323 -5.33944 -4.82004 -4.80913 -4.99277 -4.99491 -5.01856 -5.15137 -4.66975 -4.71972 -3.88897 -4.94697 -5.01274 -4.88631 -4.91132 -4.66271 -4.8434 -4.73136 -5.44026 -4.78925 -4.92146 -4.85367 -4.79767 -8.0866 -4.63854 -4.51865 -5.28968 -5.05468 -4.53944 -4.73213 -5.04417 -4.89365 -4.42489 -4.41401 -4.02741 -4.81664 -3.97319 -3.93943 -5.026 -5.58952 -4.17533 -4.6022 -4.97016 -4.61496 -4.91528 -10.9887 -4.69249 -4.55077 -5.03541 -4.01219 -4.19474 -4.47733 -4.5722 -4.21657 -4.86129 -4.46203 -4.00715 -4.54701 -4.03961 -4.47034 -4.63626 -6.37182 -4.44049 -4.94154 -4.02356 -6.07401 -14.3522 -4.21729 -5.0995 -5.15653 -3.66629 -4.57954 -4.64095 -4.41969 -4.45342 -4.9918 -4.53385 -3.68883 -3.85939 -4.75391 -5.16846 -2.57769 -4.50768 -4.0278 -4.19302 -5.03572 -9.66871 -3.83303 -4.68134 -4.10744 -5.04996 -4.91843 -3.97149 -4.993 -5.38998 -5.16076 -5.25412 -4.30472 -5.30425 -5.3491 -4.78198 -5.07157 -5.1193 -5.00701 -5.46976 -11.3932 -4.50245 -4.48521 -3.89599 -4.40011 -4.50098 -4.9151 -4.9402 -4.45295 -5.51123 -3.74035 -4.74664 -5.08719 -4.80034 -4.35624 -4.73261 -4.53121 -5.96543 -13.2444 -4.95431 -3.94257 -4.33585 -4.43352 -4.41118 -4.94853 -4.28893 -3.81377 -4.12662 -3.90905 -4.37698 -2.43714 -4.30569 -4.04726 -4.26678 -4.88999 -8.27718 -4.13505 -4.75282 -4.1257 -2.83588 -4.41995 -4.65813 -3.63723 -3.08949 -4.60541 -3.81653 -5.38276 -4.48209 -4.43153 -4.07231 -4.67363 -7.572 -3.90999 -4.95072 -4.68826 -4.68732 -4.17641 -4.44587 -4.2387 -5.31358 -4.6232 -3.35778 -4.55699 -4.67921 -4.53985 -5.02542 -7.80139 -1.97167 -4.13399 -4.55711 -4.80813 -4.19233 -4.07382 -4.47513 -4.31009 -4.99864 -4.23992 -3.96593 -4.46959 -4.61089 -8.95802 -5.91788 -3.77576 -4.94993 -2.83215 -3.10838 -2.19886 -3.20265 -2.65904 -3.94566 -3.38995 -3.70927 -4.26679 -5.79107 -3.09437 -4.87175 -4.8009 -3.5987 -4.84569 -5.24521 -3.86626 -3.87446 -4.89433 -4.61334 -4.65389 -9.80724 -4.52772 -4.64509 -3.80566 -4.98494 -5.03489 -4.16036 -4.87381 -4.60079 -4.85739 -6.03135 -8.38117 -3.91566 -3.73401 -3.43207 -3.73745 -1.95046 -4.08522 -3.00765 -3.25149 -2.90609 -0.169838 -1.63956 -4.26531 -4.04088 -2.35839 -3.5814 -3.04332 -3.50321 -4.8136 -5.87248 -3.19015 -4.39714 -4.37051 -4.10148 -4.25206 -3.46918 -4.43457 -7.88782 -3.66895 -1.92081 -4.57459 -5.29373 -4.26554 -4.81898 -9.05671 -3.95209 -3.7231 -2.58563 -3.10702 -4.85796 -5.0869 -2.13843 -3.79354 -4.09742 -5.14607 -5.70568 -3.36384 -3.27575 -4.38497 -5.47618 -3.29604 -4.52173 -4.31022 -3.63633 -1.62411 -3.57274 -3.26638
probB -0.948566 -0.800119 -0.0882505 -0.445725 -0.0249712 -1.04934 -0.0921337 -0.013379 0.201013 -0.0791831 -0.227013 0.52601 -0.194238 -0.416159 -0.054666 -0.0117414 -0.103322 -0.443151 0.0727232 0.131095 0.473552 0.00731207 0.627397 5.7323 -2.0328 0.14397 0.151263 0.122542 0.49848 -0.122994 0.528645 0.353229 0.858161 0.557397 0.200147 1.81968 0.539428 0.488301 0.194339 0.657488 0.703981 0.287902 0.930295 0.746497 1.08297 0.627452 1.72877 6.54136 0.753473 0.0187982 0.447433 0.50301 0.215858 0.415913 0.143602 0.352242 0.272468 0.0575951 0.650288 0.503675 0.3757 0.915225 0.827497 0.491969 0.2596 1.40932 0.608173 0.550586 0.427586 0.496124 3.74463 0.728596 0.186683 0.743412 -0.0250777 0.121227 0.705404 0.342846 0.541123 0.472409 0.890604 0.0273156 0.184881 -0.0399799 0.137885 0.283565 0.290386 0.841725 0.621947 0.634134 0.42479 0.339991 6.70992 0.676707 -0.0772625 -0.071355 0.0318082 0.085862 -0.0357609 0.0131858 -0.233615 0.95709 -0.186606 0.0291307 0.111281 0.320243 0.32562 0.240536 2.41957 0.445649 1.02309 0.369735 1.29665 9.57429 0.0441437 -0.836852 -0.476522 -0.0838147 0.0468363 -0.224664 0.012868 0.359002 -0.346595 -0.405871 -0.141225 -0.176395 0.00380483 -0.256381 -0.250309 0.260639 0.286977 -0.160185 0.36004 5.48381 -0.0900904 0.0374653 0.378176 0.500307 -0.0282012 -0.229443 0.677967 0.196397 0.0704426 0.884034 0.264914 0.457107 0.416281 0.94474 0.729027 0.816816 0.602293 0.548746 6.67835 0.812644 0.157146 -0.125677 -0.137779 -0.21688 0.967705 -0.233557 -0.106314 1.25543 -0.0704734 0.687832 -0.207264 1.13689 0.24642 0.76988 0.0923661 1.24738 8.5039 0.698198 0.219944 -0.103982 -0.246033 0.373529 -0.399015 -0.0614639 -0.0640623 0.245493 -0.0109306 -0.208995 -0.644582 0.125186 0.0682815 -0.0916202 0.199617 4.1533 0.245371 -0.264299 -0.450819 -0.110956 -0.0626797 -0.224307 0.162156 0.161162 -0.127428 -0.157993 1.43118 0.36554 0.471461 -0.0720909 0.212143 3.32564 0.324547 -0.241794 0.540053 -0.0349891 -0.0963643 0.234668 0.153447 0.250045 -0.0564552 -0.326632 0.301748 0.69625 0.196 0.506134 3.91777 -1.6337 0.263294 -0.0533394 -0.169548 0.375673 0.590719 0.147665 -0.0481773 1.00458 0.375466 -0.0416563 -0.0405773 0.313548 4.78198 2.46782 -0.314184 -0.818127 -0.207979 -0.00435615 -0.0102123 0.0460527 0.111893 -0.128161 0.265931 -0.388322 0.197952 2.22351 0.161673 -0.15882 0.832963 0.0747559 0.0725443 -0.147184 0.563501 0.376726 0.305558 0.286637 0.0112388 5.24421 0.56078 0.472117 0.267458 0.145769 0.381828 0.321256 0.558842 0.653938 0.512372 1.0908 3.9957 0.296199 -0.335726 -0.129136 0.0917817 0.192081 -0.509729 -0.0378971 0.138313 0.123183 -0.187703 -0.0448683 -0.192706 -0.252675 -0.319008 0.102148 0.0680192 -0.0238075 0.196927 2.23931 0.343727 -0.355466 0.843995 0.0917726 0.466026 -0.0930497 0.394937 4.01262 0.305641 -0.772069 0.734729 0.86677 -0.0791569 0.390147 4.89869 0.162405 -0.252507 0.0243707 -0.100703 -1.07866 1.45999 -0.101643 0.160518 0.150701 0.660091 2.3493 -0.182813 -0.0564211 -0.403513 2.14121 0.158123 0.183593 1.32015 0.02936 -0.584268 0.388316 -0.394975
nr_sv 34 192 79 99 114 68 139 132 76 46 107 81 22 83 121 4 36 38 69 7 45 20 40 19 3 3
SV
5.460953779612761 4.139058320697253 3.012987747660017 3.26127737446134 3.857064651855489 4.966060723594289 4.047795885833641 3.816432945295752 4.002772380964969 4.577027754179263 3.202329907435313 2.665956102879147 4.634140791350742 5.047564523830203 0.6607627461166438 3.161235549653739 3.406254059969563 2.840587071293003 0.8311280000288059 2.104927214858954 1.200913298134887 1.678967366749337 0.9373350099794116 0.5084732101039343 1.25357276082312 3:0.0941176 4:0.027451 5:0.313725 6:0.827451 7:0.694118 8:0.352941 9:0.827451 10:0.694118 11:0.0392157 17:0.00392157 18:0.541176 19:0.156863 20:0.0156863 21:0.0470588 22:0.0392157 23:0.0196078 24:0.0470588 25:0.0392157 26:0.137255 27:0.137255 33:0.243137 34:0.0705882 41:0.137255 42:0.494118 43:0.101961 47:0.00392157 48:0.47451 49:0.137255 56:0.00392157 57:0.47451 58:0.137255 62:0.00392157 63:0.568627 64:0.164706 71:0.00392157 72:0.027451 73:0.00784314 78:0.215686 79:0.0627451 85:0.101961 86:0.568627 87:0.215686 93:0.0941176 94:0.027451 98:0.0627451 99:0.156863 100:0.164706 101:0.537255 102:0.0666667 108:0.345098 109:0.407843 110:0.368627 111:0.34902 112:0.0588235 113:0.215686 114:0.541176 115:0.105882 116:0.0313725 123:0.0470588 124:0.690196 125:0.396078 126:0.34902 127:0.0588235 129:0.0313725 130:0.486275 131:0.384314 138:0.00784314 139:0.109804 140:0.00784314 144:0.00784314 145:0.247059 146:0.486275 147:0.00392157 153:0.0156863 154:0.25098 155:0.0156863 160:0.00784314 161:0.027451 168:0.0431373 169:0.627451 170:0.0431373 176:0.227451 177:0.227451 183:0.00784314 184:0.109804 185:0.00784314 190:0.027451 191:0.403922 192:0.305882 198:0.0156863 199:0.243137 200:0.0196078 201:0.00392157 202:0.00392157 203:0.137255 204:0.34902 205:0.156863 206:0.345098 207:0.0196078 213:0.0156863 214:0.243137 215:0.25098 216:0.615686 217:0.517647 218:0.168627 219:0.34902 220:0.0627451 
1.335523616746231 0 0.7225513646468635 0 1.640879227927478 2.805853574588639 0.4244623709444784 0.3537425405789958 0 0.5504689281116952 0 0.00162563742886016 0 0 0.2567447392757976 0 0.3540873546444761 0 0.08973609033281051 0 0.4407559828030411 1.210351847073026 0 0.1328286006077769 0 3:0.00392157 4:0.101961 5:0.0196078 7:0.00392157 8:0.215686 9:0.905882 10:0.996078 11:0.94902 12:0.2 18:0.0235294 19:0.615686 20:0.407843 21:0.32549 22:0.34902 23:0.792157 24:0.992157 25:0.996078 26:0.94902 27:0.203922 33:0.0235294 34:0.713725 35:0.984314 36:0.980392 37:0.980392 38:0.992157 39:1 40:1 41:0.976471 42:0.54902 43:0.0431373 48:0.0196078 49:0.658824 50:0.988235 51:1 52:0.996078 53:0.933333 54:0.913725 55:0.94902 56:0.996078 57:0.862745 58:0.0823529 64:0.152941 65:0.705882 66:0.796078 67:0.772549 68:0.294118 69:0.133333 70:0.501961 71:0.992157 72:0.862745 73:0.0823529 79:0.00784314 80:0.0431373 81:0.0470588 82:0.0470588 83:0.0156863 84:0.00392157 85:0.427451 86:0.992157 87:0.862745 88:0.0823529 93:0.298039 94:0.52549 95:0.105882 96:0.0352941 97:0.054902 98:0.443137 99:0.572549 100:0.752941 101:0.992157 102:0.839216 103:0.0784314 108:0.466667 109:0.878431 110:0.776471 111:0.756863 112:0.764706 113:0.941176 114:0.996078 115:0.996078 116:0.898039 117:0.337255 118:0.0196078 123:0.054902 124:0.184314 125:0.878431 126:1 127:0.996078 128:0.996078 129:0.996078 130:0.992157 131:0.588235 132:0.227451 133:0.0196078 139:0.0823529 140:0.862745 141:0.996078 142:0.976471 143:0.67451 144:0.572549 145:0.752941 146:0.972549 147:0.831373 148:0.0784314 154:0.0823529 155:0.862745 156:0.996078 157:0.627451 158:0.129412 159:0.054902 160:0.454902 161:0.992157 162:0.862745 163:0.0823529 169:0.0823529 170:0.862745 171:0.992157 172:0.52549 173:0.635294 174:0.796078 175:0.882353 176:0.996078 177:0.862745 178:0.0823529 184:0.0823529 185:0.862745 186:0.996078 187:0.952941 188:0.976471 189:1 190:0.996078 191:0.996078 192:0.862745 193:0.0823529 198:0.0117647 199:0.384314 200:0.92549 201:0.996078 202:0.988235 203:0.980392 204:0.980392 205:0.988235 206:0.964706 207:0.545098 208:0.0431373 213:0.0235294 214:0.713725 215:0.996078 216:0.992157 217:0.611765 218:0.329412 219:0.329412 220:0.603922 221:0.560784 222:0.0666667 
0 0 0.6175507351021701 1.330452028267821 0.3568821286864903 0 1.756434392309773 0 0 0.49884142881475 0 0 0.64964499414921 0 0 0 0 0 0 0.7074864725120075 0 0.3250925226975064 0 0.04054784160821143 0 2:0.00392157 3:0.141176 4:0.0705882 10:0.643137 11:0.145098 12:0.105882 13:0.00392157 17:0.00784314 18:0.392157 19:0.494118 20:0.521569 21:0.498039 22:0.184314 23:0.513725 24:0.52549 25:0.862745 26:0.627451 27:0.643137 28:0.0352941 34:0.572549 35:1 36:0.956863 37:0.25098 38:0.713725 39:0.996078 40:0.996078 41:0.94902 42:0.858824 43:0.0352941 48:0.105882 49:0.796078 50:1 51:0.972549 52:0.368627 53:0.647059 54:0.788235 55:0.835294 56:1 57:0.952941 58:0.580392 59:0.113725 63:0.0196078 64:0.619608 65:1 66:0.992157 67:0.647059 68:0.0745098 69:0.0745098 70:0.560784 71:0.984314 72:1 73:0.886275 74:0.152941 78:0.113725 79:0.811765 80:1 81:0.996078 82:0.713725 85:0.117647 86:0.952941 87:0.996078 88:0.835294 89:0.12549 93:0.0156863 94:0.607843 95:1 96:0.996078 97:0.713725 98:0.0196078 99:0.172549 100:0.662745 101:0.992157 102:0.968627 103:0.717647 104:0.141176 108:0.121569 109:0.823529 110:1 111:0.996078 112:0.733333 113:0.494118 114:0.866667 115:0.905882 116:1 117:0.898039 118:0.0705882 123:0.0117647 124:0.6 125:1 126:0.996078 127:0.886275 128:0.870588 129:0.996078 130:0.996078 131:1 132:0.992157 133:0.537255 139:0.572549 140:1 141:0.992157 142:0.662745 143:0.615686 144:0.913725 145:0.972549 146:1 147:1 148:0.607843 149:0.0156863 154:0.572549 155:1 156:0.968627 157:0.352941 158:0.0313725 159:0.0509804 160:0.494118 161:0.980392 162:1 163:0.968627 164:0.188235 169:0.572549 170:1 171:0.996078 172:0.713725 173:0.0666667 174:0.00784314 175:0.560784 176:0.984314 177:1 178:0.988235 179:0.2 184:0.572549 185:1 186:0.996078 187:0.713725 188:0.611765 189:0.458824 190:0.835294 191:1 192:1 193:0.984314 194:0.196078 199:0.572549 200:1 201:0.996078 202:0.713725 203:0.670588 204:0.996078 205:0.996078 206:0.996078 207:0.894118 208:0.580392 209:0.0392157 214:0.572549 215:0.882353 216:0.823529 217:0.713725 218:0.670588 219:0.843137 220:0.862745 221:0.815686 222:0.145098 223:0.0117647 
2.848404672948921 0.2859423744153575 2.375320899667072 1.051119287160785 2.03975595152264 2.668959478485687 0.8775650047505941 1.642309249056772 0.3104474808923451 1.011709648112527 0.08031107463105675 0.5853086787909398 2.191439955340447 1.071628837548162 0.1536947314534178 0.5726603599870388 0.3356496699383788 1.33612557307969 0.6681658038243531 0.2403832016749786 0.7255802129433264 0.4877490054501351 0.08992052761523259 0 0.0905867346676878 4:0.0705882 5:0.254902 6:0.580392 7:0.0117647 8:0.0980392 9:0.0980392 10:0.0588235 11:0.0588235 18:0.0588235 19:0.658824 20:0.976471 21:0.8 22:0.517647 23:0.776471 24:0.776471 25:0.658824 26:0.635294 27:0.172549 28:0.188235 33:0.0431373 34:0.603922 35:0.996078 36:0.996078 37:0.996078 38:0.996078 39:0.996078 40:0.996078 41:0.988235 42:0.705882 43:0.145098 48:0.129412 49:0.937255 50:0.721569 51:0.811765 52:0.870588 53:0.85098 54:0.823529 55:0.72549 56:0.745098 57:0.937255 58:0.415686 63:0.133333 64:0.952941 65:0.337255 66:0.145098 67:0.172549 68:0.160784 69:0.145098 70:0.0862745 71:0.0980392 72:0.396078 73:0.764706 74:0.0862745 78:0.137255 79:0.956863 80:0.615686 81:0.027451 86:0.0156863 87:0.478431 88:0.643137 89:0.054902 92:0.00784314 93:0.552941 94:0.980392 95:0.705882 96:0.0352941 101:0.0156863 102:0.478431 103:0.615686 104:0.0470588 107:0.00392157 108:0.396078 109:0.976471 110:0.890196 111:0.0509804 113:0.00392157 114:0.2 115:0.121569 116:0.356863 117:0.882353 118:0.92549 119:0.12549 122:0.0156863 123:0.792157 124:0.996078 125:0.960784 126:0.686275 127:0.670588 128:0.670588 129:0.866667 130:0.788235 131:0.992157 132:0.996078 133:0.6 134:0.0431373 137:0.0156863 138:0.796078 139:0.996078 140:0.996078 141:0.996078 142:0.996078 143:0.996078 144:0.996078 145:0.996078 146:0.996078 147:0.996078 148:0.423529 152:0.0156863 153:0.764706 154:0.996078 155:0.992157 156:0.94902 157:0.588235 158:0.72549 159:0.72549 160:0.588235 161:0.94902 162:0.992157 163:0.733333 164:0.0745098 168:0.203922 169:0.964706 170:0.901961 171:0.152941 172:0.192157 173:0.160784 174:0.141176 175:0.0392157 176:0.14902 177:0.901961 178:0.611765 179:0.0470588 182:0.00784314 183:0.486275 184:0.960784 185:0.952941 186:0.596078 187:0.835294 188:0.733333 189:0.709804 190:0.572549 191:0.592157 192:0.952941 193:0.937255 194:0.12549 197:0.00392157 198:0.266667 199:0.533333 200:0.94902 201:0.996078 202:0.996078 203:0.996078 204:0.996078 205:0.996078 206:0.996078 207:0.94902 208:0.411765 209:0.0156863 212:0.00392157 213:0.364706 214:0.27451 215:0.419608 216:0.972549 217:0.952941 218:0.678431 219:0.678431 220:0.803922 221:0.803922 222:0.760784 223:0.0156863 
5.528763751079023 2.400644188328165 2.42227273021393 1.117416894238438 2.599122692415961 2.369024946750745 3.5561698447329 3.035746513993743 1.143468749602034 1.747931735091162 1.103778195285595 1.50228128422755 0.7628992063139494 1.687843732784258 1.723677112689882 2.638785648720839 0.960398443718348 1.040664100479293 0.9713738815983356 1.172224939176011 1.44118994465822 0.7365550033339428 0.7827345544431569 0.2088402198583195 0.2348672781949001 3:0.0117647 4:0.14902 5:0.164706 6:0.164706 7:0.0941176 8:0.101961 9:0.0117647 10:0.541176 11:0.301961 12:0.0941176 18:0.0431373 19:0.490196 20:0.780392 21:0.960784 22:0.737255 23:0.764706 24:0.466667 25:0.741176 26:0.964706 27:0.545098 34:0.0235294 35:0.607843 36:0.996078 37:0.996078 38:0.992157 39:0.741176 40:0.313725 41:0.772549 42:0.231373 49:0.176471 50:0.835294 51:0.996078 52:0.996078 53:0.921569 54:0.215686 55:0.305882 56:0.862745 57:0.52549 64:0.164706 65:0.815686 66:1 67:0.984314 68:0.878431 69:0.207843 70:0.733333 71:0.517647 72:0.243137 79:0.235294 80:0.917647 81:0.996078 82:0.643137 83:0.164706 84:0.352941 85:0.796078 86:0.137255 94:0.12549 95:0.760784 96:0.988235 97:0.572549 98:0.0901961 99:0.882353 100:0.662745 101:0.0745098 109:0.0784314 110:0.666667 111:0.458824 112:0.470588 113:0.682353 114:0.372549 115:0.270588 116:0.0470588 124:0.0784314 125:0.678431 126:0.584314 127:0.329412 128:0.909804 129:0.741176 130:0.278431 131:0.0470588 139:0.12549 140:0.72549 141:0.196078 142:0.00784314 143:0.352941 144:0.945098 145:0.952941 146:0.164706 154:0.235294 155:0.905882 156:0.607843 157:0.0235294 158:0.0705882 159:0.807843 160:0.964706 161:0.301961 162:0.0941176 169:0.164706 170:0.796078 171:0.470588 172:0.0156863 174:0.184314 175:0.803922 176:0.894118 177:0.321569 184:0.203922 185:0.870588 186:0.831373 187:0.0705882 188:0.0823529 189:0.0823529 190:0.223529 191:0.72549 192:0.0823529 199:0.203922 200:0.870588 201:0.878431 202:0.576471 203:0.909804 204:0.909804 205:0.564706 206:0.627451 207:0.364706 214:0.164706 215:0.486275 216:0.423529 217:0.423529 218:0.835294 219:0.835294 220:0.717647 221:0.172549 222:0.00392157 
1.773963068151483 0.7843296147972638 1.128282250146795 1.025532111696335 1.685873295652812 2.010758191123807 2.069372723656636 0.6854527432240517 0.243304794002787 0.5499489295823046 1.979683758954318 0.7559628070269486 0.207607121490998 2.565725848791885 0.2812170585748162 0.4012851907612663 0.3043654118043044 0.2775321592884068 0.722633042559784 0.3069857484690909 1.447803248966194 0.2291134680805612 1.19135138817469 0.35375818450407 0.2011717291295569 7:0.14902 8:0.164706 9:0.164706 10:0.690196 11:0.160784 19:0.0588235 20:0.364706 21:0.752941 22:0.976471 23:0.996078 24:0.996078 25:0.996078 26:0.513725 27:0.00392157 34:0.184314 35:0.466667 36:0.980392 37:0.996078 38:0.941176 39:0.984314 40:1 41:0.792157 42:0.317647 50:0.0196078 51:0.94902 52:0.996078 53:0.141176 54:0.772549 55:0.996078 56:1 57:0.490196 65:0.0156863 66:0.94902 67:0.996078 68:0.145098 69:0.0862745 70:0.572549 71:0.996078 72:0.721569 73:0.0156863 80:0.0196078 81:0.94902 82:0.996078 83:0.764706 84:0.054902 85:0.788235 86:0.996078 87:0.470588 95:0.305882 96:0.980392 97:0.996078 98:0.980392 99:0.92549 100:0.996078 101:0.964706 102:0.184314 110:0.411765 111:0.992157 112:0.996078 113:0.996078 114:0.996078 115:0.854902 116:0.384314 117:0.0627451 125:0.47451 126:1 127:0.960784 128:0.980392 129:0.996078 130:0.435294 131:0.294118 140:0.47451 141:1 142:0.713725 143:0.372549 144:0.980392 145:0.996078 146:0.423529 155:0.498039 156:1 157:0.713725 159:0.415686 160:0.996078 161:0.945098 162:0.0156863 169:0.0156863 170:0.701961 171:1 172:0.721569 173:0.12549 174:0.890196 175:0.996078 176:0.933333 177:0.0156863 185:0.278431 186:0.972549 187:0.988235 188:0.968627 189:0.996078 190:0.694118 191:0.235294 201:0.290196 202:0.968627 203:0.996078 204:0.733333 205:0.188235 216:0.00392157 217:0.760784 218:0.819608 219:0.0196078 
0.9907901227736475 0.4290633644078422 0.8314188394115465 0.9676590281341752 0.9110910131063511 1.30743008953556 1.336739599832421 0.5628657202756837 1.165486901024927 0.7961705190977367 0.2551648482225009 0.5462677381382329 1.812041842223783 1.817152188118121 0 0.6994208141730036 0.5259344827869846 0.8095706569947461 0.8146973124905351 0.9197811648547634 0.9141896060251162 1.181749072127436 0.634510046189576 0.09442766165507774 0.2394413318943261 3:0.235294 4:0.94902 5:0.996078 6:0.996078 7:0.968627 8:0.188235 9:0.101961 10:0.00392157 18:0.00392157 19:0.717647 20:0.984314 21:0.960784 22:0.960784 23:0.847059 24:0.811765 25:0.580392 26:0.117647 34:0.713725 35:0.611765 36:0.321569 37:0.368627 38:0.466667 39:0.494118 40:0.705882 41:0.772549 42:0.12549 49:0.713725 50:0.584314 51:0.831373 52:0.996078 53:0.917647 54:0.894118 55:0.466667 56:0.788235 57:0.807843 58:0.0588235 64:0.713725 65:0.584314 66:0.831373 67:0.752941 68:0.690196 69:0.72549 70:0.956863 71:0.34902 72:0.952941 73:0.0823529 79:0.713725 80:0.584314 81:0.831373 82:0.517647 83:0.164706 84:0.235294 85:0.890196 86:0.301961 87:0.952941 88:0.0823529 94:0.713725 95:0.584314 96:0.8 97:0.956863 98:0.843137 99:0.8 100:0.270588 101:0.54902 102:0.937255 103:0.0784314 109:0.713725 110:0.576471 111:0.305882 112:0.368627 113:0.466667 114:0.435294 115:0.0235294 116:0.831373 117:0.470588 118:0.00392157 124:0.713725 125:0.584314 126:0.831373 127:0.94902 128:0.854902 129:0.894118 130:0.466667 131:0.788235 132:0.807843 133:0.0588235 139:0.713725 140:0.584314 141:0.831373 142:0.443137 143:0.188235 144:0.615686 145:0.956863 146:0.34902 147:0.952941 148:0.0823529 154:0.713725 155:0.584314 156:0.831373 157:0.517647 158:0.117647 159:0.607843 160:0.913725 161:0.301961 162:0.952941 163:0.0823529 169:0.713725 170:0.584314 171:0.8 172:0.956863 173:0.843137 174:0.807843 175:0.270588 176:0.54902 177:0.647059 178:0.0352941 184:0.713725 185:0.572549 186:0.0705882 187:0.0862745 188:0.262745 189:0.278431 190:0.282353 191:0.831373 192:0.305882 198:0.0235294 199:0.341176 200:0.854902 201:0.713725 202:0.713725 203:0.713725 204:0.333333 205:0.882353 206:0.760784 207:0.00784314 213:0.152941 214:0.537255 215:0.572549 216:0.572549 217:0.572549 218:0.572549 219:0.772549 220:0.0666667 221:0.027451 
1.701513785876974 0 0.4092614479574385 0 1.494028631563445 1.253795678947519 0.130744034709668 0.9441311189162158 0 0.5623199986198157 1.203435686302002 0.114808115673212 1.118064608935623 0 0 1.036277044235496 0 0.1689081366250173 1.595021294809646 0 1.323532546470755 0 0 0 0 6:0.109804 8:0.282353 9:0.4 10:0.0941176 18:0.14902 19:0.223529 20:0.556863 21:0.85098 22:0.576471 23:0.694118 24:0.988235 25:0.580392 26:0.027451 33:0.0235294 34:0.686275 35:0.996078 36:0.996078 37:0.996078 38:0.996078 39:0.996078 40:0.960784 41:0.760784 42:0.00784314 49:0.713725 50:0.996078 51:1 52:0.996078 53:0.996078 54:1 55:0.996078 56:0.94902 57:0.305882 64:0.713725 65:0.996078 66:0.996078 67:0.992157 68:0.988235 69:0.988235 70:0.992157 71:0.996078 72:0.423529 79:0.713725 80:0.996078 81:0.996078 82:0.517647 83:0.164706 84:0.180392 85:0.607843 86:0.996078 87:0.513725 88:0.0117647 94:0.713725 95:0.996078 96:0.996078 97:0.462745 98:0.372549 99:0.117647 100:0.956863 101:0.996078 102:0.647059 103:0.0352941 109:0.713725 110:0.996078 111:0.996078 112:0.952941 113:0.964706 114:0.921569 115:0.996078 116:0.996078 117:0.423529 124:0.713725 125:0.996078 126:1 127:0.996078 128:0.996078 129:1 130:0.996078 131:0.878431 132:0.12549 139:0.713725 140:0.996078 141:0.996078 142:0.992157 143:0.996078 144:1 145:0.996078 146:0.901961 147:0.192157 154:0.713725 155:0.996078 156:0.996078 157:0.631373 158:0.788235 159:0.94902 160:0.996078 161:0.996078 162:0.784314 163:0.054902 169:0.713725 170:0.996078 171:0.996078 172:0.976471 173:0.619608 174:0.878431 175:0.996078 176:0.996078 177:0.427451 184:0.713725 185:0.996078 186:0.996078 187:0.996078 188:0.996078 189:1 190:0.996078 191:0.996078 192:0.423529 199:0.713725 200:0.996078 201:1 202:0.996078 203:0.996078 204:1 205:0.996078 206:0.878431 207:0.12549 214:0.447059 215:0.984314 216:0.996078 217:0.996078 218:0.996078 219:1 220:0.815686 221:0.478431 222:0.00392157 
0 0 1.499784795524873 1.27990631073003 0 0 1.250547337536402 0 0 0 0 0 0 0.2464728856611785 0 0 0 0 0 0.02668604944867849 0 0 0.2184010433990718 0.1612311630374606 0 5:0.152941 6:0.694118 7:0.0117647 8:0.164706 9:0.0941176 10:0.14902 11:0.027451 18:0.0196078 19:0.647059 20:0.972549 21:0.94902 22:0.686275 23:0.733333 24:0.878431 25:0.972549 26:0.235294 27:0.0235294 34:0.427451 35:1 36:1 37:0.94902 38:0.756863 39:1 40:0.996078 41:0.988235 42:0.643137 43:0.00392157 49:0.423529 50:0.996078 51:0.996078 52:0.913725 53:0.576471 54:0.996078 55:0.996078 56:0.996078 57:0.94902 58:0.184314 64:0.423529 65:0.996078 66:0.996078 67:0.937255 68:0.196078 69:0.811765 70:0.996078 71:0.996078 72:0.996078 73:0.423529 79:0.352941 80:0.984314 81:0.996078 82:0.92549 83:0.0823529 84:0.443137 85:0.984314 86:0.996078 87:1 88:0.423529 94:0.270588 95:0.964706 96:1 97:0.921569 98:0.12549 99:0.847059 100:0.972549 101:1 102:0.992157 103:0.388235 109:0.235294 110:0.960784 111:0.996078 112:0.996078 113:0.698039 114:0.976471 115:0.996078 116:0.996078 117:0.913725 118:0.0117647 124:0.027451 125:0.917647 126:0.996078 127:1 128:0.756863 129:0.980392 130:0.996078 131:0.996078 132:0.913725 133:0.00784314 139:0.270588 140:0.964706 141:0.996078 142:1 143:0.8 144:0.984314 145:0.996078 146:0.996078 147:0.733333 148:0.00392157 154:0.00784314 155:0.913725 156:0.996078 157:1 158:0.54902 159:0.968627 160:0.996078 161:0.996078 162:0.807843 163:0.00784314 169:0.00784314 170:0.858824 171:1 172:1 173:0.611765 174:0.972549 175:1 176:1 177:0.913725 178:0.00784314 184:0.00392157 185:0.627451 186:0.996078 187:0.996078 188:0.458824 189:0.960784 190:0.996078 191:0.992157 192:0.878431 193:0.00784314 199:0.184314 200:0.607843 201:0.996078 202:1 203:0.666667 204:0.752941 205:0.996078 206:0.827451 207:0.0313725 213:0.0196078 214:0.643137 215:0.796078 216:0.996078 217:1 218:0.490196 219:0.647059 220:0.533333 221:0.0705882 
0 0 2.164520312930318 1.063325879066025 1.491926478286314 1.4399475165703 1.415868121000516 0.258481097213034 1.298892921999086 0 0.3710385159407252 1.504305379622313 2.31818109276697 1.384773807865987 0 0.9311402720864097 1.028641811236586 1.402400805082091 0.9143054707448595 0.6633742221124249 0 0.1295079360203431 0 0 0.09263282836421108 4:0.027451 5:0.580392 6:0.105882 7:0.572549 8:0.054902 10:0.101961 11:0.00784314 20:0.239216 21:0.682353 22:0.662745 23:0.670588 24:0.52549 25:0.811765 26:0.34902 34:0.00392157 35:0.211765 36:0.74902 37:0.996078 38:0.996078 39:0.996078 40:0.980392 41:0.505882 49:0.0313725 50:0.854902 51:0.686275 52:0.941176 53:0.92549 54:0.635294 55:0.905882 56:0.290196 57:0.486275 58:0.0156863 65:0.309804 66:0.917647 67:0.584314 68:0.101961 69:0.0431373 70:0.737255 71:0.929412 72:0.309804 79:0.0196078 80:0.611765 81:0.619608 82:0.0823529 83:0.0156863 84:0.203922 85:0.843137 86:0.666667 87:0.643137 88:0.0196078 95:0.227451 96:0.835294 97:0.909804 98:0.317647 99:0.498039 100:0.811765 101:0.933333 102:0.890196 103:0.0352941 109:0.0235294 110:0.596078 111:0.87451 112:0.996078 113:0.8 114:0.972549 115:0.792157 116:0.976471 117:0.498039 118:0.0117647 124:0.0352941 125:0.886275 126:0.996078 127:0.905882 128:0.866667 129:0.796078 130:0.996078 131:0.996078 132:0.631373 133:0.0196078 139:0.0117647 140:0.478431 141:0.941176 142:0.654902 143:0.172549 144:0.141176 145:0.811765 146:0.945098 147:0.294118 154:0.0313725 155:0.85098 156:0.619608 157:0.0705882 159:0.309804 160:0.929412 161:0.666667 162:0.858824 163:0.0313725 169:0.00784314 170:0.239216 171:0.741176 172:0.776471 173:0.313725 174:0.121569 175:0.403922 176:0.92549 177:0.792157 178:0.0313725 184:0.243137 185:0.552941 186:0.741176 187:0.960784 188:0.658824 189:0.356863 190:0.929412 191:0.388235 192:0.0313725 199:0.494118 200:0.894118 201:0.87451 202:0.854902 203:0.819608 204:0.819608 205:0.788235 206:0.0392157 214:0.0117647 215:0.145098 216:0.494118 217:0.0666667 218:0.388235 219:0.647059 220:0.0235294 
0.4607990788402384 0 0.09525362591440753 0.3009660873113589 0.5861091527672461 0.5480603610689993 0.8939042183277286 0.07518168094234393 0.6883969064240881 0.1935666520561062 0 0.5068627504795852 0.6562996008984046 0.3571218700728976 0.1329261734136217 0.4426408612785621 0.2107561856313899 0.1833442582042862 0.07602385542375596 0.3293132007676747 0.5178041392951041 0.1813747345440781 0.3460816060403106 0.1461824476764921 0.04958366157622893 2:0.282353 3:0.537255 4:0.0980392 5:0.0470588 17:0.282353 18:0.662745 19:0.627451 20:0.458824 21:0.282353 22:0.2 23:0.00784314 32:0.282353 33:0.94902 34:0.980392 35:0.972549 36:0.952941 37:0.8 38:0.443137 39:0.423529 40:0.388235 41:0.0745098 47:0.282353 48:0.960784 49:0.996078 50:0.92549 51:0.513725 52:0.572549 53:0.933333 54:0.972549 55:0.952941 56:0.552941 57:0.0784314 58:0.0196078 62:0.282353 63:0.960784 64:0.972549 65:0.462745 66:0.0470588 67:0.0784314 68:0.278431 69:0.643137 70:0.909804 71:0.862745 72:0.67451 73:0.443137 74:0.0862745 75:0.0235294 77:0.282353 78:0.960784 79:0.960784 80:0.282353 84:0.0980392 85:0.270588 86:0.192157 87:0.4 88:0.898039 89:0.803922 90:0.235294 92:0.2 93:0.807843 94:0.968627 95:0.486275 96:0.235294 97:0.101961 98:0.152941 99:0.188235 100:0.678431 101:0.388235 102:0.486275 103:0.972549 104:0.960784 105:0.282353 107:0.00784314 108:0.443137 109:0.972549 110:0.705882 111:0.8 112:0.623529 113:0.717647 114:0.72549 115:0.713725 116:0.890196 117:0.843137 118:0.592157 119:0.776471 120:0.278431 123:0.407843 124:0.937255 125:0.372549 126:0.8 127:0.956863 128:0.972549 129:0.956863 130:0.32549 131:0.352941 132:0.305882 133:0.027451 134:0.231373 135:0.117647 138:0.160784 139:0.690196 140:0.305882 141:0.235294 142:0.282353 143:0.588235 144:0.956863 145:0.345098 146:0.0705882 147:0.00784314 153:0.352941 154:0.882353 155:0.282353 158:0.352941 159:0.815686 160:0.72549 161:0.694118 162:0.172549 163:0.00392157 168:0.305882 169:0.843137 170:0.458824 171:0.0470588 173:0.0352941 174:0.0823529 175:0.160784 176:0.831373 177:0.741176 178:0.301961 179:0.117647 182:0.00784314 183:0.207843 184:0.74902 185:0.662745 186:0.376471 187:0.0431373 188:0.180392 189:0.180392 190:0.0941176 191:0.831373 192:0.980392 193:0.776471 194:0.231373 196:0.0941176 197:0.52549 198:0.733333 199:0.960784 200:0.733333 201:0.827451 202:0.603922 203:0.729412 204:0.729412 205:0.607843 206:0.831373 207:0.623529 208:0.537255 209:0.0117647 211:0.164706 212:0.909804 213:0.701961 214:0.701961 215:0.933333 216:0.521569 217:0.933333 218:0.701961 219:0.701961 220:0.996078 221:0.831373 222:0.164706 223:0.152941 
0.3637197113738264 0 2.265791945244692 1.409021768945912 2.109015728059819 1.066300777995398 3.76286097147295 1.152103452907684 0 0.7114989253733358 0 0 1.770685985371483 1.44426213181387 0 0 0 1.782058247076612 0.8350167256742643 1.256184649751541 0 0 0.3212042650993282 0 0 5:0.0313725 6:0.156863 7:0.164706 8:0.254902 9:0.905882 10:0.988235 11:0.376471 18:0.160784 19:0.121569 20:0.403922 21:0.901961 22:0.929412 23:0.937255 24:0.988235 25:0.992157 26:0.564706 27:0.0666667 33:0.490196 34:0.682353 35:0.921569 36:0.992157 37:0.698039 38:0.47451 39:0.6 40:0.980392 41:0.964706 42:0.545098 43:0.0431373 48:0.164706 49:0.741176 50:0.988235 51:0.992157 52:0.470588 53:0.0196078 54:0.219608 55:0.917647 56:0.996078 57:0.87451 58:0.137255 63:0.00784314 64:0.298039 65:0.909804 66:0.996078 67:0.780392 68:0.156863 69:0.0784314 70:0.603922 71:0.992157 72:0.952941 73:0.501961 74:0.0156863 78:0.0235294 79:0.682353 80:0.992157 81:0.992157 82:0.45098 83:0.0156863 84:0.227451 85:0.937255 86:0.996078 87:0.870588 88:0.113725 93:0.0235294 94:0.713725 95:1 96:0.992157 97:0.462745 98:0.384314 99:0.32549 100:0.964706 101:0.996078 102:0.839216 103:0.0784314 108:0.0235294 109:0.713725 110:0.996078 111:0.996078 112:0.866667 113:0.913725 114:0.839216 115:0.988235 116:0.960784 117:0.360784 118:0.0196078 123:0.0156863 124:0.560784 125:0.964706 126:0.996078 127:0.988235 128:0.815686 129:0.815686 130:0.988235 131:0.960784 132:0.392157 133:0.172549 134:0.00392157 138:0.00784314 139:0.372549 140:0.92549 141:0.996078 142:0.733333 143:0.164706 144:0.266667 145:0.964706 146:0.996078 147:0.968627 148:0.682353 149:0.0235294 153:0.0235294 154:0.709804 155:0.996078 156:0.992157 157:0.427451 159:0.239216 160:0.960784 161:1 162:0.913725 163:0.321569 164:0.00784314 168:0.0235294 169:0.713725 170:0.996078 171:0.992157 172:0.423529 174:0.239216 175:0.960784 176:0.996078 177:0.862745 178:0.0823529 183:0.0235294 184:0.713725 185:0.996078 186:0.992157 187:0.576471 188:0.0666667 189:0.239216 190:0.960784 191:0.996078 192:0.862745 193:0.0823529 198:0.0117647 199:0.372549 200:0.615686 201:0.964706 202:0.956863 203:0.588235 204:0.6 205:0.972549 206:0.980392 207:0.847059 208:0.0823529 215:0.0666667 216:0.560784 217:0.631373 218:0.835294 219:0.996078 220:0.713725 221:0.333333 222:0.282353 223:0.027451 
2.360439058449428 0.392301439216514 1.719913659640955 2.41616877074976 0.9205784206015166 2.161726104387196 5.18250880705884 1.117386814455909 1.621117135401791 0.9214881380550731 0.2246897612091026 0.6120364224587889 3.723762267267774 2.168221917726692 0.4855088027168369 0.6823746332908605 1.2703861951304 2.667222156206976 0.7675151942891151 3.728641916795519 0.2619070027105748 1.983814197170059 0.7985917961274677 0.3065192205309029 0.03486993632365511 4:0.0470588 5:0.164706 6:0.164706 7:0.509804 8:0.105882 11:0.0588235 12:0.0196078 19:0.0901961 20:0.807843 21:0.968627 22:0.984314 23:0.25098 24:0.603922 25:0.603922 26:0.788235 27:0.576471 35:0.0196078 36:0.631373 37:0.988235 38:0.113725 39:0.0235294 40:0.0588235 41:0.94902 42:0.796078 51:0.619608 52:0.988235 53:0.105882 55:0.0352941 56:0.94902 57:0.796078 66:0.619608 67:0.929412 68:0.0901961 70:0.0352941 71:0.94902 72:0.705882 80:0.0745098 81:0.835294 82:0.835294 83:0.0666667 85:0.0352941 86:0.945098 87:0.54902 95:0.00392157 96:0.635294 97:0.988235 98:0.105882 100:0.0352941 101:0.94902 102:0.788235 111:0.619608 112:0.988235 113:0.321569 114:0.054902 115:0.0352941 116:0.941176 117:0.203922 126:0.619608 127:0.988235 128:0.321569 129:0.54902 130:0.658824 131:0.737255 132:0.47451 140:0.0705882 141:0.819608 142:0.764706 143:0.0470588 144:0.00784314 145:0.0431373 146:0.941176 147:0.521569 155:0.00392157 156:0.639216 157:0.968627 158:0.101961 160:0.0352941 161:0.94902 162:0.796078 171:0.619608 172:0.988235 173:0.105882 175:0.0352941 176:0.94902 177:0.796078 186:0.619608 187:0.988235 188:0.105882 190:0.0352941 191:0.94902 192:0.796078 199:0.0196078 200:0.0862745 201:0.807843 202:0.780392 203:0.0745098 204:0.0196078 205:0.301961 206:0.968627 207:0.466667 213:0.00784314 214:0.552941 215:0.576471 216:0.772549 217:0.964706 218:0.639216 219:0.572549 220:0.388235 221:0.964706 222:0.533333 
0.6432091954607248 0 0.5085205746903846 0.5172170263558924 1.691021588387462 0.9470548957582073 0.8714333666787909 0.1922451976561555 0.5755257223969158 0.1668922905777153 0 0.2343917997526854 0.6462641521024448 1.167634863587122 0 0.4260080352306545 0.2592149514025353 0.5033102978713971 0.1932487090419772 0.9182527368139629 0.08249443670925631 0.617000633219677 0.227401280344677 0.03596209632304125 0 8:0.141176 9:0.952941 10:0.27451 17:0.356863 18:0.615686 19:0.141176 20:0.0470588 21:0.0509804 22:0.52549 23:0.792157 24:0.407843 25:0.796078 26:0.596078 27:0.0588235 32:0.0588235 33:0.733333 34:0.956863 35:0.94902 36:0.945098 37:0.921569 38:0.262745 40:0.133333 41:0.85098 42:0.733333 43:0.313725 48:0.376471 49:0.996078 50:0.996078 51:0.682353 52:0.137255 56:0.52549 57:0.988235 58:0.858824 59:0.0666667 63:0.376471 64:0.996078 65:0.996078 66:0.619608 71:0.0784314 72:0.952941 73:0.996078 74:0.372549 78:0.376471 79:1 80:1 81:0.619608 86:0.596078 87:0.996078 88:1 89:0.376471 93:0.376471 94:0.996078 95:0.996078 96:0.682353 97:0.027451 100:0.247059 101:0.929412 102:1 103:0.996078 104:0.376471 108:0.376471 109:1 110:0.996078 111:0.976471 112:0.580392 113:0.407843 114:0.623529 115:0.929412 116:0.996078 117:0.996078 118:0.862745 119:0.145098 123:0.376471 124:1 125:1 126:0.643137 127:0.580392 128:0.756863 129:0.972549 130:0.996078 131:0.768627 132:0.623529 133:0.133333 138:0.313725 139:0.968627 140:0.996078 141:0.682353 142:0.054902 143:0.0666667 144:0.160784 145:0.74902 146:0.894118 147:0.580392 148:0.027451 153:0.00784314 154:0.831373 155:0.996078 156:0.988235 157:0.164706 160:0.0666667 161:0.760784 162:0.992157 163:0.580392 168:0.00784314 169:0.831373 170:0.996078 171:0.992157 172:0.164706 176:0.619608 177:1 178:0.831373 179:0.00392157 182:0.00784314 183:0.407843 184:0.968627 185:0.996078 186:0.992157 187:0.164706 190:0.027451 191:0.682353 192:1 193:0.831373 194:0.00392157 197:0.0156863 198:0.352941 199:0.376471 200:0.733333 201:0.964706 202:0.588235 203:0.0784314 204:0.592157 205:0.682353 206:0.992157 207:0.94902 208:0.407843 215:0.027451 216:0.262745 217:0.611765 218:0.792157 219:0.639216 220:0.619608 221:0.592157 222:0.0745098 223:0.00784314 
1.636054902315553 0 2.420699335103827 2.365453809958642 1.363139859863476 2.370166717648305 4.673121635857345 0.5457827218815389 0.0384621923688012 0.5067227176076936 1.248094556538858 0.366510051438056 0 1.223524844077962 0 0.3277942143775778 0.4550243510326488 1.212425274055354 0.01245314505641929 0.06906836548115712 1.219933694778309 1.157900448100388 1.570968725394927 0.3261401173244429 0 4:0.345098 5:0.176471 6:0.156863 20:0.682353 21:0.992157 22:0.890196 23:0.372549 24:0.192157 25:0.25098 26:0.643137 27:0.00392157 34:0.00784314 35:0.658824 36:0.87451 37:0.996078 38:0.996078 39:0.984314 40:0.94902 41:0.870588 42:0.0156863 49:0.231373 50:0.952941 51:0.647059 52:0.470588 53:0.584314 54:0.933333 55:0.619608 56:0.952941 57:0.694118 58:0.00392157 64:0.00784314 65:0.956863 66:0.996078 67:0.996078 68:0.960784 69:0.690196 70:0.980392 71:0.560784 72:0.509804 73:0.00392157 79:0.243137 80:0.623529 81:0.423529 82:0.74902 83:0.0784314 84:0.819608 85:0.960784 86:1 87:0.956863 88:0.00784314 94:0.305882 95:0.992157 96:0.996078 97:0.796078 98:0.713725 99:0.713725 100:0.615686 101:0.372549 102:0.466667 109:0.0823529 110:0.619608 111:0.996078 112:0.996078 113:0.996078 114:0.996078 115:0.996078 116:0.870588 117:0.721569 118:0.00392157 124:0.00784314 125:0.917647 126:1 127:1 128:0.996078 129:0.996078 130:0.996078 131:0.427451 132:0.0666667 139:0.00784314 140:0.980392 141:1 142:0.996078 143:0.772549 144:0.772549 145:0.996078 146:0.678431 147:0.278431 154:0.0117647 155:0.980392 156:1 157:0.917647 158:0.0156863 159:0.584314 160:1 161:1 162:0.811765 163:0.00392157 169:0.403922 170:0.996078 171:1 172:0.996078 173:0.972549 174:0.976471 175:1 176:1 177:0.760784 178:0.00392157 184:0.027451 185:0.980392 186:0.996078 187:0.996078 188:0.996078 189:0.996078 190:0.996078 191:0.996078 192:0.713725 193:0.00392157 199:0.145098 200:0.921569 201:0.972549 202:0.956863 203:0.996078 204:0.996078 205:0.996078 206:0.996078 207:0.768627 208:0.00392157 216:0.14902 217:0.0862745 218:0.239216 219:0.8 220:0.890196 221:0.333333 222:0.00392157 
1.734771936644106 0 1.049221096867834 1.237472905409377 0.5668832914794231 1.112744320092578 1.152724424402405 0 0 0.5246268027943994 0 0 1.080237490740782 0.9064658508628986 0 0 0 1.025938674876274 0.3985629585824031 1.357852871495558 0.6050707032921739 1.005660745125469 0.4459098384494897 0.4736201699531906 0 3:0.101961 4:0.164706 5:0.478431 6:0.992157 7:0.831373 8:0.0470588 9:0.00784314 10:0.137255 11:0.164706 12:0.156863 13:0.027451 18:0.376471 19:0.886275 20:0.968627 21:0.996078 22:0.894118 23:0.403922 24:0.403922 25:0.854902 26:0.94902 27:0.901961 28:0.160784 33:0.0509804 34:0.831373 35:1 36:0.996078 37:0.996078 38:0.992157 39:0.992157 40:0.996078 41:1 42:0.980392 43:0.682353 44:0.388235 48:0.0470588 49:0.831373 50:1 51:0.996078 52:0.996078 53:1 54:1 55:0.996078 56:1 57:1 58:0.996078 59:0.619608 60:0.00392157 63:0.262745 64:0.894118 65:1 66:0.980392 67:0.690196 68:0.760784 69:0.988235 70:0.992157 71:0.996078 72:1 73:0.937255 74:0.407843 77:0.00392157 78:0.588235 79:0.988235 80:0.996078 81:0.980392 82:0.592157 83:0.219608 84:0.392157 85:0.509804 86:0.968627 87:0.996078 88:0.937255 89:0.407843 93:0.141176 94:0.858824 95:1 96:0.996078 97:0.968627 98:0.835294 99:0.447059 100:0.74902 101:0.988235 102:1 103:0.968627 104:0.52549 105:0.00392157 108:0.0470588 109:0.831373 110:1 111:1 112:1 113:0.996078 114:0.968627 115:0.988235 116:1 117:0.996078 118:0.835294 119:0.0745098 123:0.0745098 124:0.839216 125:1 126:0.996078 127:0.956863 128:0.968627 129:0.996078 130:1 131:1 132:0.968627 133:0.458824 134:0.0470588 137:0.00392157 138:0.431373 139:0.941176 140:1 141:0.964706 142:0.415686 143:0.423529 144:0.827451 145:0.858824 146:0.988235 147:0.988235 148:0.858824 149:0.517647 150:0.00392157 153:0.0745098 154:0.839216 155:1 156:0.996078 157:0.862745 158:0.419608 159:0.192157 160:0.211765 161:0.952941 162:1 163:1 164:0.619608 165:0.00392157 168:0.0470588 169:0.831373 170:1 171:0.996078 172:0.996078 173:0.988235 174:0.760784 175:0.682353 176:0.980392 177:1 178:1 179:0.619608 180:0.00392157 182:0.0627451 183:0.203922 184:0.858824 185:1 186:0.996078 187:0.996078 188:1 189:1 190:0.996078 191:1 192:1 193:0.968627 194:0.52549 195:0.00392157 197:0.215686 198:0.588235 199:0.921569 200:0.996078 201:0.996078 202:0.992157 203:0.992157 204:0.992157 205:0.996078 206:0.992157 207:0.972549 208:0.588235 209:0.0588235 213:0.0235294 214:0.313725 215:0.607843 216:0.964706 217:0.478431 218:0.376471 219:0.403922 220:0.792157 221:0.403922 222:0.356863 223:0.0666667 
2.106375826367257 1.291717349848292 0.8416823730726667 1.825697955559191 1.219991534957257 1.258096032621645 1.872834105058746 0.9169560365518414 1.169744940806941 1.104092925296171 0.2171152203709666 0.6302562714290051 1.2383924755696 1.939597277570839 0.2191722956884378 1.14663242362674 0.8613744355270905 0.8523629937357132 0.182367229527405 1.789542145026013 1.045850073204614 1.16514623272287 0.8074846615268397 0.4960326223068995 0.0156056076384251 1:0.027451 2:0.156863 3:0.164706 4:0.164706 5:0.0745098 6:0.109804 7:0.0745098 8:0.164706 9:0.164706 10:0.196078 11:0.858824 12:0.643137 13:0.152941 14:0.0117647 16:0.0862745 17:0.521569 18:0.8 19:0.694118 20:0.666667 21:0.784314 22:0.490196 23:0.537255 24:0.537255 25:0.552941 26:0.913725 27:0.980392 28:0.917647 29:0.34902 30:0.00392157 32:0.00392157 33:0.176471 34:0.305882 35:0.988235 36:0.996078 37:0.607843 38:0.0235294 40:0.00784314 41:0.341176 42:0.92549 43:0.996078 44:0.737255 45:0.0431373 49:0.282353 50:0.988235 51:0.996078 52:0.835294 53:0.176471 56:0.0117647 57:0.470588 58:0.996078 59:0.972549 60:0.388235 64:0.282353 65:0.988235 66:1 67:0.576471 68:0.00392157 72:0.423529 73:0.996078 74:0.996078 75:0.423529 79:0.282353 80:0.988235 81:0.996078 82:0.572549 87:0.352941 88:0.94902 89:0.996078 90:0.423529 94:0.282353 95:0.988235 96:0.996078 97:0.572549 101:0.0745098 102:0.431373 103:0.843137 104:0.988235 105:0.419608 109:0.282353 110:0.988235 111:1 112:0.607843 113:0.0862745 114:0.0823529 115:0.105882 116:0.643137 117:0.905882 118:0.858824 119:0.337255 120:0.117647 124:0.282353 125:0.988235 126:0.996078 127:0.839216 128:0.654902 129:0.807843 130:0.796078 131:0.878431 132:0.388235 133:0.156863 134:0.00784314 139:0.129412 140:0.764706 141:0.996078 142:0.592157 143:0.054902 144:0.270588 145:0.25098 146:0.423529 147:0.654902 148:0.690196 149:0.419608 150:0.0196078 154:0.235294 155:0.917647 156:0.996078 157:0.85098 158:0.188235 162:0.423529 163:0.996078 164:0.94902 165:0.352941 169:0.282353 170:0.988235 171:0.996078 172:0.760784 173:0.12549 177:0.423529 178:0.996078 179:0.992157 180:0.419608 184:0.258824 185:0.952941 186:1 187:0.72549 188:0.101961 192:0.388235 193:0.972549 194:0.819608 195:0.160784 199:0.101961 200:0.72549 201:0.996078 202:0.952941 203:0.258824 206:0.0470588 207:0.313725 208:0.819608 209:0.890196 210:0.270588 212:0.00392157 213:0.360784 214:0.329412 215:0.984314 216:0.996078 217:0.992157 218:0.694118 219:0.572549 220:0.552941 221:0.258824 222:0.945098 223:0.584314 224:0.305882 225:0.00784314 
1.624277048356166 0.03849513165818257 1.184679106062795 0.3491602344189745 2.914745111835098 2.626691995171654 1.21992139033255 0.1903654600041712 0 0 0 0 0.5797196151556251 0.5899705285142625 0 0.448523885072884 0 0 0 0.5151791264114154 0 0 0 0 0.03539156131523364 4:0.0470588 5:0.643137 6:0.996078 7:0.643137 8:0.164706 9:0.164706 10:0.164706 11:0.137255 12:0.00392157 19:0.270588 20:0.968627 21:0.929412 22:0.760784 23:0.952941 24:0.952941 25:0.952941 26:0.870588 27:0.435294 28:0.117647 34:0.0784314 35:0.686275 36:0.878431 37:0.752941 38:0.458824 39:0.282353 40:0.305882 41:0.823529 42:0.721569 43:0.101961 49:0.0784314 50:0.666667 51:0.423529 52:0.0941176 53:0.0235294 56:0.223529 57:0.917647 58:0.258824 64:0.12549 65:0.756863 66:0.8 67:0.0313725 70:0.0156863 71:0.52549 72:0.972549 73:0.282353 79:0.235294 80:0.894118 81:0.388235 82:0.0117647 85:0.00392157 86:0.27451 87:0.890196 88:0.235294 94:0.164706 95:0.815686 96:0.803922 97:0.0431373 98:0.00784314 99:0.00784314 100:0.243137 101:0.517647 102:0.745098 103:0.129412 109:0.203922 110:0.847059 111:0.529412 112:0.701961 113:0.713725 114:0.537255 115:0.615686 116:0.984314 117:0.905882 118:0.258824 124:0.282353 125:0.984314 126:0.894118 127:0.72549 128:0.894118 129:0.713725 130:0.690196 131:0.843137 132:0.384314 133:0.101961 138:0.0431373 139:0.619608 140:0.682353 141:0.360784 142:0.027451 143:0.270588 144:0.0431373 145:0.0235294 146:0.470588 147:0.733333 148:0.12549 153:0.0117647 154:0.388235 155:0.772549 156:0.109804 160:0.0235294 161:0.580392 162:0.815686 163:0.235294 168:0.0352941 169:0.541176 170:0.666667 171:0.0823529 174:0.00784314 175:0.0117647 176:0.0392157 177:0.439216 178:0.282353 183:0.0313725 184:0.513725 185:0.980392 186:0.654902 187:0.105882 188:0.137255 189:0.658824 190:0.713725 191:0.713725 192:0.823529 193:0.282353 198:0.231373 199:0.623529 200:0.87451 201:0.984314 202:0.913725 203:0.917647 204:0.988235 205:0.996078 206:0.94902 207:0.717647 208:0.2 212:0.00392157 213:0.258824 214:0.0431373 215:0.247059 216:0.423529 217:0.662745 218:0.584314 219:0.423529 220:0.423529 221:0.352941 222:0.0235294 
1.588742577295312 0.2588064563346531 0.2563709578359111 0.3215390238149548 0.6612930138447204 1.369562015318156 0.5859723498945696 0.09427271351221397 0.1427851384776156 0.03837777923717354 0.07322419936475767 0.2341412081798253 0.2573727017334206 0.7093430996975758 0.3665135466610755 0.1279760700817236 0.3171115597969547 0.2947392225963606 0 0.5030776743463288 0.8144199188969545 0.7023301483976561 0.2166297874790569 0.0515790933345852 0.008354354249012328 1:0.164706 2:0.941176 3:0.384314 4:0.109804 5:0.0705882 6:0.156863 7:0.054902 8:0.156863 9:0.164706 10:0.137255 11:0.0666667 12:0.0666667 13:0.109804 14:0.00784314 16:0.164706 17:0.945098 18:0.639216 19:0.756863 20:0.619608 21:0.917647 22:0.564706 23:0.921569 24:0.94902 25:0.854902 26:0.615686 27:0.615686 28:0.756863 29:0.262745 31:0.164706 32:0.94902 33:0.996078 34:0.996078 35:0.996078 36:0.996078 37:0.992157 38:0.996078 39:1 40:0.996078 41:0.996078 42:0.996078 43:0.996078 44:0.635294 45:0.0235294 46:0.137255 47:0.854902 48:0.996078 49:0.968627 50:0.901961 51:0.894118 52:0.831373 53:0.831373 54:0.92549 55:0.858824 56:0.831373 57:0.933333 58:0.996078 59:0.929412 60:0.313725 61:0.0705882 62:0.619608 63:0.996078 64:0.839216 65:0.305882 66:0.258824 67:0.0470588 68:0.0509804 69:0.376471 70:0.141176 71:0.054902 72:0.639216 73:1 74:0.992157 75:0.376471 76:0.164706 77:0.945098 78:0.996078 79:0.839216 80:0.0980392 81:0.0196078 82:0.0313725 83:0.0196078 84:0.0470588 85:0.0156863 86:0.0509804 87:0.639216 88:0.996078 89:0.992157 90:0.376471 91:0.164706 92:0.94902 93:1 94:0.968627 95:0.835294 96:0.447059 97:0.607843 98:0.447059 99:0.796078 100:0.388235 101:0.8 102:0.933333 103:0.996078 104:0.929412 105:0.313725 106:0.164706 107:0.94902 108:1 109:1 110:0.996078 111:0.968627 112:0.980392 113:0.968627 114:0.996078 115:0.964706 116:0.996078 117:1 118:1 119:0.780392 120:0.160784 121:0.164706 122:0.94902 123:1 124:0.988235 125:0.952941 126:0.952941 127:0.980392 128:0.968627 129:0.968627 130:0.94902 131:0.94902 132:0.952941 133:0.988235 134:0.988235 135:0.372549 136:0.164706 137:0.94902 138:1 139:0.858824 140:0.203922 141:0.196078 142:0.607843 143:0.443137 144:0.411765 145:0.164706 146:0.164706 147:0.301961 148:0.886275 149:0.992157 150:0.376471 151:0.164706 152:0.945098 153:0.996078 154:0.894118 155:0.262745 156:0.00784314 157:0.0313725 158:0.0235294 159:0.0196078 160:0.00392157 161:0.0117647 162:0.596078 163:0.988235 164:0.992157 165:0.376471 166:0.0705882 167:0.619608 168:0.996078 169:0.996078 170:0.639216 171:0.384314 172:0.239216 173:0.588235 174:0.290196 175:0.52549 176:0.623529 177:0.854902 178:1 179:0.992157 180:0.376471 181:0.137255 182:0.854902 183:0.996078 184:0.996078 185:0.937255 186:0.929412 187:0.886275 188:0.988235 189:0.901961 190:0.968627 191:1 192:1 193:0.996078 194:0.929412 195:0.313725 196:0.470588 197:0.964706 198:0.996078 199:0.996078 200:0.992157 201:0.996078 202:0.992157 203:0.992157 204:0.992157 205:0.992157 206:0.996078 207:0.996078 208:0.933333 209:0.423529 210:0.0196078 211:0.368627 212:0.603922 213:0.635294 214:0.792157 215:0.407843 216:0.733333 217:0.478431 218:0.376471 219:0.376471 220:0.376471 221:0.603922 222:0.635294 223:0.729412 224:0.0509804 
0 0 0.8372435967869707 0.603863046623552 0.9033127795074267 0.7781708453144648 0.3948950052145525 0.02783598613729392 0.3303147200530431 0.104500714103077 0 0 1.653560308475533 1.321108823760087 0 0.1167664532151502 0 1.176260346681273 0 0.6025677628045714 0.2494357220184841 0.910949465317708 0 0.1126932291777518 0 3:0.00784314 4:0.0666667 8:0.278431 9:0.164706 18:0.0627451 19:0.847059 20:0.756863 21:0.752941 22:0.133333 23:0.811765 24:0.756863 25:0.701961 26:0.0431373 33:0.0627451 34:0.988235 35:1 36:0.996078 37:0.713725 38:0.862745 39:1 40:0.996078 41:0.760784 42:0.0392157 48:0.0627451 49:0.988235 50:1 51:1 52:0.713725 53:0.862745 54:1 55:1 56:0.996078 57:0.486275 63:0.0627451 64:0.980392 65:1 66:1 67:0.713725 68:0.756863 69:0.901961 70:1 71:1 72:0.960784 73:0.0313725 79:0.392157 80:0.988235 81:1 82:0.819608 83:0.0823529 84:0.552941 85:0.996078 86:1 87:0.980392 88:0.235294 94:0.0352941 95:0.972549 96:1 97:0.996078 98:0.317647 99:0.92549 100:0.996078 101:0.996078 102:0.992157 103:0.419608 109:0.0352941 110:0.972549 111:1 112:0.996078 113:0.772549 114:0.996078 115:0.996078 116:0.996078 117:0.870588 118:0.027451 124:0.0352941 125:0.972549 126:1 127:0.996078 128:0.337255 129:0.996078 130:0.996078 131:0.996078 132:0.47451 139:0.372549 140:0.988235 141:1 142:0.819608 143:0.666667 144:0.996078 145:1 146:1 147:0.47451 154:0.0392157 155:0.972549 156:1 157:0.996078 158:0.337255 159:0.996078 160:1 161:1 162:0.47451 169:0.0352941 170:0.972549 171:1 172:0.996078 173:0.337255 174:0.996078 175:1 176:1 177:0.47451 184:0.0352941 185:0.972549 186:1 187:0.996078 188:0.337255 189:0.996078 190:0.996078 191:0.972549 192:0.278431 199:0.207843 200:0.980392 201:1 202:0.996078 203:0.486275 204:0.933333 205:0.996078 206:0.411765 214:0.0823529 215:0.854902 216:1 217:1 218:0.796078 219:0.603922 220:0.290196 221:0.0392157 
0.5962795131916858 0.5118899182475735 0.4547640391084129 0.7098466286428282 0.1005005468507572 0.1239546515519574 0.2312278825622012 0.9481626824556058 0 0.1059774787163348 0 0.4751373362155235 1.167408228731073 0 0 0.1189029867788395 0.5347330711980389 2.016124393953154 0 1.120787776526169 0.6295272518068095 0.5234738929904962 0.1546844403729357 0.04448804117576991 0.06696993865107453 1:0.027451 2:0.0823529 8:0.054902 9:0.666667 10:0.235294 11:0.156863 12:0.0156863 16:0.0823529 17:0.466667 18:0.454902 19:0.462745 20:0.47451 21:0.47451 22:0.462745 23:0.470588 24:0.819608 25:0.964706 26:0.92549 27:0.117647 28:0.00392157 32:0.0941176 33:0.2 34:0.541176 35:0.996078 36:0.992157 37:0.427451 38:0.133333 39:0.133333 40:0.388235 41:0.933333 42:0.815686 43:0.411765 44:0.0156863 49:0.423529 50:0.996078 51:0.992157 52:0.282353 55:0.00784314 56:0.392157 57:0.952941 58:0.956863 59:0.411765 60:0.00392157 64:0.423529 65:0.996078 66:0.992157 67:0.282353 71:0.0470588 72:0.890196 73:0.996078 74:0.796078 75:0.0156863 79:0.423529 80:0.996078 81:0.992157 82:0.282353 86:0.0470588 87:0.890196 88:1 89:0.796078 90:0.0156863 94:0.423529 95:0.996078 96:0.992157 97:0.282353 101:0.0980392 102:0.898039 103:0.996078 104:0.741176 105:0.0117647 108:0.0431373 109:0.6 110:0.996078 111:0.870588 112:0.219608 113:0.301961 114:0.129412 115:0.298039 116:0.705882 117:0.909804 118:0.65098 119:0.133333 123:0.12549 124:0.92549 125:0.996078 126:0.87451 127:0.65098 128:0.709804 129:0.533333 130:0.74902 131:0.396078 132:0.298039 133:0.00392157 138:0.00784314 139:0.470588 140:0.996078 141:0.992157 142:0.345098 143:0.054902 144:0.054902 145:0.239216 146:0.8 147:0.760784 148:0.278431 149:0.0392157 154:0.423529 155:0.996078 156:0.992157 157:0.282353 161:0.266667 162:0.929412 163:0.980392 164:0.545098 165:0.00784314 169:0.423529 170:0.996078 171:0.992157 172:0.282353 176:0.0470588 177:0.890196 178:1 179:0.796078 180:0.0156863 184:0.423529 185:0.996078 186:0.992157 187:0.282353 191:0.0470588 192:0.890196 193:0.996078 194:0.772549 195:0.0156863 199:0.423529 200:0.996078 201:0.992157 202:0.282353 203:0.0627451 204:0.0627451 206:0.164706 207:0.909804 208:0.968627 209:0.223529 211:0.0862745 212:0.509804 213:0.521569 214:0.72549 215:0.996078 216:0.996078 217:0.611765 218:0.184314 219:0.498039 220:0.52549 221:0.784314 222:0.529412 223:0.454902 224:0.0627451 
1.706742204122631 0.4543342859500046 1.075257106365086 0.8966188358461946 1.311628707623522 1.13377498426995 1.031266763124341 0.7838199367421507 0.6180476441167 0.7989737335616657 0.3827574041729295 0.3897435112524445 1.433064324361005 0.8315334538867258 0 0.5523729376072901 0.5500836836751605 0.6632079682513691 0.3729899053281388 1.220184915157156 0.3866363722854683 0.8074714028546695 0.3826288309438188 0.361032161803101 0.1130362681151228 1:0.164706 2:0.509804 3:0.117647 4:0.117647 5:0.164706 6:0.164706 7:0.164706 8:0.164706 9:0.164706 10:0.164706 11:0.164706 12:0.164706 13:0.117647 16:0.164706 17:0.980392 18:0.870588 19:0.870588 20:0.988235 21:0.988235 22:0.988235 23:0.988235 24:0.988235 25:0.988235 26:0.988235 27:0.988235 28:0.858824 29:0.152941 31:0.164706 32:0.988235 33:0.996078 34:0.996078 35:0.996078 36:0.996078 37:0.996078 38:0.996078 39:0.996078 40:0.996078 41:0.996078 42:0.996078 43:0.819608 44:0.282353 45:0.00784314 46:0.164706 47:0.988235 48:0.996078 49:0.992157 50:0.917647 51:0.913725 52:0.917647 53:0.992157 54:1 55:0.996078 56:1 57:0.996078 58:0.996078 59:0.917647 60:0.0784314 61:0.164706 62:0.988235 63:0.996078 64:0.647059 65:0.054902 66:0.0352941 67:0.054902 68:0.52549 69:0.572549 70:0.572549 71:0.572549 72:0.815686 73:0.996078 74:0.996078 75:0.552941 76:0.164706 77:0.988235 78:0.996078 79:0.4 80:0.164706 81:0.164706 82:0.164706 83:0.164706 84:0.164706 85:0.164706 86:0.164706 87:0.643137 88:0.996078 89:1 90:0.572549 91:0.164706 92:0.988235 93:0.996078 94:0.992157 95:0.988235 96:0.988235 97:0.988235 98:0.988235 99:0.988235 100:0.988235 101:0.988235 102:0.992157 103:0.996078 104:0.94902 105:0.262745 106:0.164706 107:0.988235 108:0.996078 109:0.996078 110:0.996078 111:0.996078 112:0.996078 113:0.996078 114:0.996078 115:0.996078 116:0.996078 117:0.996078 118:0.917647 119:0.654902 120:0.0235294 121:0.164706 122:0.988235 123:0.996078 124:0.486275 125:0.282353 126:0.388235 127:0.545098 128:0.282353 129:0.282353 130:0.552941 131:0.984314 132:0.996078 133:0.917647 134:0.254902 136:0.509804 137:0.992157 138:0.996078 139:0.588235 140:0.423529 141:0.427451 142:0.439216 143:0.305882 144:0.00784314 145:0.207843 146:0.909804 147:0.996078 148:0.996078 149:0.890196 150:0.0313725 151:0.301961 152:0.988235 153:0.996078 154:1 155:0.996078 156:0.996078 157:0.996078 158:0.94902 159:0.831373 160:0.901961 161:0.996078 162:0.996078 163:0.996078 164:0.913725 165:0.0352941 166:0.164706 167:0.988235 168:0.996078 169:0.996078 170:0.996078 171:0.996078 172:0.996078 173:0.996078 174:0.996078 175:0.996078 176:0.996078 177:0.996078 178:0.996078 179:0.913725 180:0.0352941 181:0.164706 182:0.988235 183:0.996078 184:1 185:0.996078 186:0.996078 187:0.996078 188:0.996078 189:1 190:0.996078 191:0.996078 192:0.996078 193:0.996078 194:0.913725 195:0.0352941 196:0.164706 197:0.988235 198:0.996078 199:1 200:0.996078 201:1 202:0.996078 203:0.996078 204:1 205:0.996078 206:1 207:0.996078 208:0.996078 209:0.462745 210:0.00784314 211:0.447059 212:0.815686 213:0.996078 214:1 215:0.996078 216:0.996078 217:0.996078 218:0.996078 219:1 220:0.996078 221:0.996078 222:0.996078 223:0.878431 224:0.160784 
0.5022492359848417 0 0 0.4469366459190593 0.5903318317052408 1.276109791108518 3.171530512363532 0.5188396719247777 1.425369134077888 0.775013736349542 0.6146139996905152 0.6038923830569754 0.2505292798497769 0.9049310570973514 0.02945610238189231 1.45461831670148 0.5520365812288729 0 0.06875435964518456 0.4975756194188462 0.4203728502599045 0.5552903057556266 1.007888433343168 0 0 4:0.870588 5:0.396078 19:0.0509804 20:0.87451 21:0.890196 22:0.423529 23:0.239216 24:0.192157 34:0.0117647 35:0.976471 36:0.996078 37:0.996078 38:1 39:0.984314 40:0.933333 41:0.580392 49:0.466667 50:0.458824 51:0.466667 52:0.584314 53:0.584314 54:0.933333 55:0.988235 56:0.968627 57:0.0313725 64:0.0156863 65:0.980392 66:0.996078 67:0.980392 68:0.960784 69:0.596078 70:0.541176 71:0.356863 72:0.686275 73:0.00392157 79:0.333333 80:0.415686 81:0.45098 82:0.94902 83:0.196078 84:0.482353 85:1 86:0.992157 87:0.623529 88:0.00392157 94:0.12549 95:0.984314 96:0.984314 97:0.717647 98:0.713725 99:0.411765 100:0.368627 101:0.572549 102:0.941176 103:0.00784314 109:0.00784314 110:0.917647 111:0.996078 112:0.996078 113:0.996078 114:0.996078 115:0.996078 116:0.917647 117:0.25098 124:0.364706 125:0.933333 126:1 127:1 128:0.996078 129:0.996078 130:0.941176 131:0.168627 132:0.462745 139:0.423529 140:0.996078 141:1 142:0.972549 143:0.941176 144:0.996078 145:0.972549 146:0.309804 147:0.00784314 154:0.184314 155:0.988235 156:1 157:0.913725 158:0.0392157 159:0.870588 160:1 161:0.996078 162:0.498039 169:0.423529 170:1 171:1 172:0.996078 173:0.572549 174:0.92549 175:1 176:0.996078 177:0.72549 178:0.00392157 184:0.2 185:0.988235 186:0.996078 187:0.996078 188:0.996078 189:0.996078 190:0.996078 191:0.996078 192:0.321569 199:0.392157 200:0.968627 201:1 202:1 203:0.996078 204:0.996078 205:0.996078 206:1 207:0.552941 215:0.12549 216:0.239216 217:0.294118 218:0.890196 219:0.890196 220:0.988235 221:0.337255 222:0.235294 
4.13982863013908 2.282322550932815 2.153534702460937 2.477319570318526 2.480315372469693 5.72878715343608 2.134588059605037 2.296164803306614 0.8054512251198825 2.852102879632787 1.907524684787765 1.447042543766511 1.508682697446356 2.786269970680513 0.717785367425873 1.365696548272385 1.391388586693497 1.114046072613922 1.177050236044889 1.579604022607072 1.518899675772409 2.142666797854289 0.8086843926621169 0.2790262890932406 1.315247874798102 4:0.137255 5:0.137255 6:0.109804 7:0.109804 8:0.109804 9:0.27451 10:0.301961 11:0.027451 19:0.137255 20:0.831373 21:0.941176 22:0.941176 23:0.941176 24:0.968627 25:0.996078 26:0.858824 27:0.27451 28:0.027451 35:0.803922 36:0.941176 37:0.941176 38:0.968627 39:0.886275 40:0.886275 41:0.996078 42:0.968627 43:0.137255 49:0.109804 50:0.333333 51:0.109804 52:0.109804 53:0.137255 54:0.054902 55:0.054902 56:0.74902 57:0.968627 58:0.137255 64:0.109804 65:0.333333 66:0.027451 67:0.27451 68:0.388235 69:0.27451 70:0.027451 71:0.164706 72:0.996078 73:0.164706 79:0.109804 80:0.666667 81:0.054902 82:0.886275 83:0.996078 84:0.996078 85:0.415686 86:0.164706 87:0.858824 88:0.164706 95:0.443137 96:0.027451 97:0.858824 98:0.996078 99:0.996078 100:0.858824 101:0.137255 102:0.831373 103:0.164706 109:0.027451 110:0.470588 112:0.831373 113:0.996078 114:0.968627 115:0.137255 116:0.109804 117:0.831373 118:0.054902 124:0.054902 125:0.498039 127:0.137255 128:0.164706 129:0.137255 131:0.694118 132:0.388235 133:0.027451 139:0.054902 140:0.607843 142:0.580392 143:0.27451 144:0.137255 146:0.721569 147:0.27451 154:0.027451 155:0.694118 156:0.109804 157:0.941176 158:0.996078 159:0.74902 160:0.027451 161:0.607843 162:0.607843 170:0.219608 172:0.831373 173:0.996078 174:0.886275 175:0.054902 176:0.607843 177:0.607843 185:0.219608 187:0.803922 188:0.968627 189:0.858824 190:0.027451 191:0.27451 192:0.607843 199:0.109804 200:0.333333 202:0.109804 203:0.137255 204:0.247059 205:0.247059 206:0.721569 207:0.137255 214:0.109804 215:0.694118 216:0.054902 217:0.164706 218:0.27451 219:0.360784 220:0.913725 221:0.580392 
0.5102103396393708 0.256906237698912 0.08313489590805807 0.02646078758346192 0.4909127017480898 0.7334928405194672 0.398487970535352 0.4675336462370817 0 0.141537137434339 0 0 0.2173013489202637 0.9206521122127419 0.02824445534883117 0 0 0 0.3111853148200469 0 0 0.1408897129245824 0.2421355277750201 0.07515386759321548 0 2:0.00784314 3:0.0941176 9:0.00392157 10:0.694118 11:0.168627 12:0.164706 13:0.027451 17:0.0470588 18:0.803922 19:0.619608 20:0.619608 21:0.619608 22:0.141176 23:0.403922 24:0.623529 25:0.933333 26:0.992157 27:0.984314 28:0.196078 32:0.0509804 33:0.94902 34:0.996078 35:0.996078 36:0.992157 37:0.956863 38:0.976471 39:0.992157 40:0.996078 41:0.996078 42:0.996078 43:0.8 44:0.00392157 47:0.52549 48:0.988235 49:0.996078 50:0.862745 51:0.2 52:0.721569 53:0.415686 54:0.168627 55:0.721569 56:0.933333 57:1 58:0.858824 59:0.0666667 62:0.619608 63:0.996078 64:0.894118 65:0.14902 67:0.00392157 70:0.00392157 71:0.266667 72:0.968627 73:0.894118 74:0.141176 77:0.388235 78:0.764706 79:0.831373 80:0.00392157 86:0.0470588 87:0.94902 88:0.831373 89:0.00392157 92:0.00784314 93:0.470588 94:0.831373 95:0.00392157 101:0.141176 102:0.956863 103:0.721569 104:0.00392157 107:0.0470588 108:0.945098 109:0.933333 110:0.623529 111:0.407843 112:0.52549 113:0.619608 114:0.619608 115:0.239216 116:0.819608 117:0.403922 118:0.0666667 122:0.0470588 123:0.945098 124:1 125:1 126:0.980392 127:0.988235 128:0.992157 129:0.992157 130:0.964706 131:0.737255 132:0.027451 137:0.0156863 138:0.564706 139:0.996078 140:0.988235 141:0.839216 142:0.721569 143:0.168627 144:0.415686 145:0.858824 146:0.858824 147:0.196078 148:0.027451 152:0.0156863 153:0.588235 154:1 155:0.592157 156:0.0235294 157:0.00392157 160:0.168627 161:0.992157 162:0.968627 163:0.156863 168:0.376471 169:1 170:0.376471 175:0.164706 176:0.992157 177:0.639216 178:0.00784314 183:0.376471 184:0.996078 185:0.854902 186:0.0392157 187:0.137255 188:0.164706 189:0.164706 190:0.301961 191:0.992157 192:0.619608 197:0.027451 198:0.733333 199:1 200:0.980392 201:0.643137 202:0.929412 203:0.992157 204:0.992157 205:0.992157 206:0.968627 207:0.592157 212:0.0470588 213:0.94902 214:1 215:0.780392 216:0.839216 217:0.619608 218:0.639216 219:0.980392 220:1 221:0.403922 222:0.027451 
0.132085310197789 0 0.642417287223485 0 0 0.3490505303881004 0.4624497871275282 0 0 0.06159290300899763 0 0 0.2834943976624268 0 0.3362418310294425 0 0 0 0 0.1787359637738574 0.06801632148300302 0.01162562622193717 0 0.02883010260946526 0.005256613521238798 1:0.027451 2:0.156863 3:0.0470588 9:0.282353 10:0.509804 11:0.164706 12:0.0941176 16:0.156863 17:0.921569 18:0.576471 19:0.423529 20:0.423529 21:0.423529 22:0.423529 23:0.423529 24:0.588235 25:0.972549 26:0.960784 27:0.552941 31:0.14902 32:0.882353 33:0.972549 34:0.996078 35:0.996078 36:0.996078 37:0.996078 38:0.996078 39:0.996078 40:0.996078 41:0.996078 42:0.607843 43:0.0784314 44:0.00392157 46:0.0117647 47:0.207843 48:0.815686 49:0.917647 50:0.878431 51:0.996078 52:0.996078 53:0.972549 54:0.819608 55:0.996078 56:0.996078 57:0.960784 58:0.835294 59:0.0745098 62:0.176471 63:0.419608 64:0.305882 65:0.25098 66:0.423529 67:0.423529 68:0.388235 69:0.160784 70:0.729412 71:0.992157 72:1 73:0.913725 74:0.0823529 78:0.0117647 79:0.101961 85:0.12549 86:0.858824 87:0.996078 88:0.807843 89:0.0705882 92:0.180392 93:0.470588 94:0.764706 95:0.427451 96:0.423529 97:0.423529 98:0.423529 99:0.423529 100:0.443137 101:0.901961 102:0.992157 103:0.564706 104:0.0352941 107:0.423529 108:0.996078 109:0.996078 110:0.996078 111:0.996078 112:0.996078 113:0.996078 114:0.996078 115:0.996078 116:0.996078 117:0.992157 118:0.458824 119:0.0235294 122:0.423529 123:0.996078 124:0.996078 125:0.988235 126:0.807843 127:0.984314 128:0.819608 129:0.972549 130:0.996078 131:0.996078 132:0.988235 133:0.282353 137:0.180392 138:0.423529 139:0.423529 140:0.407843 141:0.145098 142:0.403922 143:0.160784 144:0.388235 145:0.443137 146:0.901961 147:0.992157 148:0.690196 149:0.388235 150:0.00392157 160:0.0352941 161:0.831373 162:0.996078 163:0.92549 164:0.188235 167:0.00392157 168:0.00784314 169:0.00784314 170:0.231373 171:0.0784314 172:0.180392 173:0.12549 174:0.12549 175:0.439216 176:0.901961 177:0.996078 178:0.94902 179:0.345098 180:0.00392157 182:0.301961 183:0.713725 184:0.713725 185:0.866667 186:0.760784 187:0.831373 188:0.792157 189:0.796078 190:0.992157 191:0.996078 192:0.996078 193:0.882353 194:0.254902 197:0.423529 198:0.996078 199:0.996078 200:1 201:0.996078 202:0.996078 203:1 204:0.996078 205:0.996078 206:0.94902 207:0.839216 208:0.513725 209:0.0313725 212:0.184314 213:0.835294 214:0.996078 215:1 216:0.996078 217:0.996078 218:0.996078 219:0.835294 220:0.760784 221:0.831373 222:0.219608 223:0.380392 224:0.0352941 
1.213935823298977 0.1565076830429123 0.07303584294298612 0.03347390316449483 0.6420324546541072 0.9791073854693638 1.052799072711989 0 0.01488567953350779 0.3583629400739717 0 0 0.1311984365339664 0 0.2082334296503102 0.1348539405275393 0.1607959112458897 0 0.2228123193108298 0.656773541418757 0 0.4708652834434856 0.2845871033822625 0 0 3:0.305882 4:0.247059 10:0.027451 11:0.0588235 18:0.00784314 19:0.764706 20:0.623529 21:0.619608 22:0.619608 23:0.262745 24:0.262745 25:0.682353 26:0.756863 27:0.619608 28:0.52549 29:0.0196078 33:0.145098 34:0.894118 35:0.996078 36:0.996078 37:0.992157 38:0.968627 39:0.964706 40:0.992157 41:0.996078 42:0.996078 43:0.929412 44:0.219608 48:0.376471 49:0.996078 50:0.988235 51:0.588235 52:0.27451 53:0.827451 54:0.580392 55:0.164706 56:0.588235 57:0.988235 58:0.968627 59:0.313725 63:0.376471 64:0.996078 65:0.592157 66:0.0196078 68:0.00392157 71:0.0196078 72:0.592157 73:0.996078 74:0.376471 78:0.376471 79:0.996078 80:0.372549 87:0.376471 88:0.992157 89:0.372549 93:0.376471 94:0.886275 95:0.129412 101:0.133333 102:0.854902 103:0.301961 104:0.0627451 108:0.145098 109:0.894118 110:0.760784 111:0.619608 112:0.619608 113:0.262745 114:0.262745 115:0.619608 116:0.521569 117:0.964706 118:0.164706 123:0.0117647 124:0.831373 125:1 126:0.996078 127:0.992157 128:0.968627 129:0.964706 130:0.992157 131:0.968627 132:0.85098 133:0.101961 137:0.0313725 138:0.635294 139:0.941176 140:0.988235 141:0.588235 142:0.27451 143:0.827451 144:0.580392 145:0.27451 146:0.929412 147:0.682353 148:0.027451 153:0.0117647 154:0.831373 155:0.94902 156:0.0509804 158:0.00392157 161:0.623529 162:0.988235 163:0.164706 168:0.0117647 169:0.831373 170:0.94902 171:0.0509804 175:0.00392157 176:0.623529 177:0.992157 178:0.164706 182:0.0392157 183:0.792157 184:0.968627 185:0.988235 186:0.588235 187:0.137255 189:0.313725 190:0.831373 191:0.933333 192:0.929412 193:0.137255 197:0.0470588 198:0.94902 199:1 200:0.996078 201:0.996078 202:0.929412 203:0.623529 204:0.764706 205:1 206:1 207:0.623529 212:0.027451 213:0.592157 214:0.682353 215:0.996078 216:0.854902 217:0.619608 218:0.854902 219:0.996078 220:0.682353 221:0.854902 222:0.619608 
0 0 0 0 0 0.1293196838477164 0 0 0 0 0 0 0 0 0 0 0 0 0 0 0.6184499914198127 0 0 0 0 4:0.0117647 5:0.156863 6:0.164706 7:0.156863 8:0.298039 9:0.996078 10:0.572549 18:0.160784 19:0.266667 20:0.952941 21:0.988235 22:0.972549 23:0.729412 24:0.996078 25:0.811765 26:0.117647 33:0.2 34:0.862745 35:0.996078 36:0.996078 37:0.996078 38:0.996078 39:0.996078 40:0.996078 41:0.776471 42:0.00784314 49:0.317647 50:0.976471 51:1 52:0.996078 53:0.996078 54:1 55:0.996078 56:0.94902 57:0.352941 58:0.00392157 64:0.690196 65:0.996078 66:0.996078 67:0.752941 68:0.572549 69:0.607843 70:0.984314 71:0.996078 72:0.717647 73:0.0431373 79:0.713725 80:0.996078 81:0.996078 82:0.423529 84:0.0823529 85:0.960784 86:0.996078 87:0.784314 88:0.054902 94:0.690196 95:0.996078 96:0.996078 97:0.752941 98:0.572549 99:0.607843 100:0.984314 101:0.996078 102:0.427451 109:0.317647 110:0.976471 111:0.996078 112:0.996078 113:0.996078 114:0.996078 115:0.996078 116:0.996078 117:0.423529 124:0.713725 125:0.996078 126:1 127:0.996078 128:0.996078 129:1 130:0.996078 131:0.894118 132:0.160784 139:0.713725 140:0.996078 141:0.996078 142:0.996078 143:0.988235 144:0.996078 145:0.996078 146:0.992157 147:0.407843 154:0.607843 155:0.992157 156:0.996078 157:0.972549 158:0.388235 159:0.807843 160:0.996078 161:0.996078 162:0.423529 169:0.45098 170:0.984314 171:0.996078 172:0.996078 173:0.988235 174:0.996078 175:0.996078 176:0.996078 177:0.713725 178:0.0431373 184:0.713725 185:0.996078 186:0.996078 187:0.996078 188:0.996078 189:1 190:0.996078 191:0.94902 192:0.352941 193:0.00392157 199:0.658824 200:0.996078 201:1 202:0.996078 203:0.996078 204:1 205:0.996078 206:0.776471 207:0.00784314 214:0.0705882 215:0.552941 216:0.572549 217:0.8 218:0.607843 219:0.572549 220:0.568627 221:0.117647 
4.581801138552708 1.76796631348995 2.189903594044899 0.3238326064858629 1.339026057484412 3.183867892274992 1.405947187107815 2.028003992128086 1.671023711096094 0.4138610170348449 0.04105979486393049 0.3908041189073568 3.068322120979293 1.38665917352931 0.01297456311155802 1.519469572199008 1.129802444345945 2.251675845365296 0.3983112732221061 0.933638335072721 0 0.464550111112002 0 0 0.9623786026571535 4:0.0117647 5:0.156863 6:0.301961 7:0.415686 19:0.0823529 20:0.952941 21:0.988235 22:0.752941 23:0.572549 24:0.572549 25:0.345098 26:0.00392157 34:0.0588235 35:0.807843 36:0.760784 37:0.713725 38:0.713725 39:0.917647 40:0.94902 41:0.152941 49:0.00392157 50:0.423529 51:0.152941 54:0.2 55:0.286275 56:0.643137 57:0.301961 64:0.0431373 65:0.482353 66:0.356863 67:0.00392157 70:0.00784314 71:0.760784 72:0.25098 79:0.0117647 80:0.509804 81:0.721569 82:0.00784314 85:0.00784314 86:0.776471 87:0.286275 94:0.0352941 95:0.643137 96:0.556863 97:0.00392157 100:0.0431373 101:0.670588 102:0.0117647 110:0.423529 111:0.878431 112:0.290196 113:0.282353 114:0.309804 115:0.615686 116:0.580392 117:0.00392157 125:0.423529 126:0.984314 127:0.890196 128:0.513725 129:0.894118 130:0.0823529 140:0.423529 141:0.839216 142:0.0431373 143:0.0117647 144:0.415686 145:0.486275 146:0.0745098 155:0.423529 156:0.831373 157:0.00784314 160:0.419608 161:0.607843 162:0.00392157 170:0.423529 171:0.831373 172:0.00784314 175:0.419608 176:0.556863 177:0.00392157 185:0.423529 186:0.831373 187:0.00784314 190:0.419608 191:0.643137 192:0.00392157 200:0.423529 201:0.847059 202:0.0941176 203:0.0823529 204:0.533333 205:0.788235 206:0.152941 214:0.0352941 215:0.470588 216:0.568627 217:0.537255 218:0.537255 219:0.560784 220:0.345098 221:0.00392157 
0.9450013810385162 0.04660481387848479 0.2715236963425531 0.04454379825314712 0.8555944118075752 1.475835169907003 0.4586339038677329 0.3641083645478549 0 0.3537504428452466 0.005905657404125519 0 0.197063809289587 0.4173533269424861 0.1522768827221425 0 0.1503387978036184 0.2448551649317143 0.1476653720608831 0.4813944141616682 0.2541118956182317 0.2903981116885364 0.2595072725912386 0.2577994372763622 0.1975613642924865 1:0.164706 2:0.690196 3:0.219608 4:0.172549 5:0.603922 6:0.992157 7:1 8:0.886275 9:0.278431 10:0.164706 11:0.101961 12:0.00392157 16:0.364706 17:0.890196 18:0.898039 19:0.890196 20:0.945098 21:0.996078 22:0.996078 23:0.984314 24:0.905882 25:0.890196 26:0.643137 27:0.254902 28:0.231373 29:0.0784314 31:0.615686 32:0.741176 33:0.976471 34:0.996078 35:0.996078 36:0.980392 37:0.788235 38:0.929412 39:0.996078 40:0.996078 41:0.972549 42:0.933333 43:0.909804 44:0.52549 45:0.329412 46:0.0352941 47:0.266667 48:0.933333 49:0.992157 50:0.776471 51:0.54902 52:0.231373 53:0.462745 54:0.572549 55:0.690196 56:0.968627 57:0.988235 58:0.992157 59:0.972549 60:0.960784 62:0.239216 63:0.933333 64:0.988235 65:0.482353 66:0.0352941 67:0.027451 68:0.0156863 69:0.0196078 70:0.160784 71:0.462745 72:0.505882 73:0.784314 74:0.996078 75:1 77:0.239216 78:0.933333 79:0.988235 80:0.490196 81:0.392157 82:0.568627 83:0.129412 84:0.156863 85:0.411765 86:0.298039 87:0.619608 88:0.839216 89:0.992157 90:0.960784 92:0.219608 93:0.882353 94:0.984314 95:0.541176 96:0.658824 97:0.917647 98:0.352941 99:0.686275 100:0.894118 101:0.803922 102:0.905882 103:0.913725 104:0.870588 105:0.435294 107:0.0470588 108:0.45098 109:0.964706 110:0.827451 111:0.796078 112:0.941176 113:0.862745 114:0.972549 115:0.956863 116:0.619608 117:0.215686 118:0.2 119:0.188235 120:0.0470588 123:0.32549 124:0.952941 125:0.545098 126:0.172549 127:0.623529 128:0.956863 129:0.996078 130:0.807843 131:0.317647 132:0.105882 138:0.235294 139:0.8 140:0.470588 141:0.00784314 142:0.113725 143:0.588235 144:0.772549 145:0.94902 146:0.909804 147:0.478431 148:0.00784314 153:0.141176 154:0.647059 155:0.647059 156:0.141176 157:0.00392157 158:0.0392157 159:0.164706 160:0.678431 161:0.831373 162:0.513725 163:0.364706 164:0.12549 168:0.317647 169:0.945098 170:0.729412 171:0.196078 173:0.0117647 174:0.0156863 175:0.168627 176:0.333333 177:0.494118 178:0.945098 179:0.596078 180:0.109804 182:0.00784314 183:0.34902 184:0.960784 185:0.764706 186:0.243137 187:0.0823529 188:0.462745 189:0.462745 190:0.235294 191:0.552941 192:0.772549 193:0.952941 194:0.564706 195:0.0980392 197:0.145098 198:0.694118 199:0.984314 200:0.956863 201:0.768627 202:0.690196 203:0.886275 204:0.921569 205:0.772549 206:0.941176 207:0.984314 208:0.6 209:0.109804 212:0.054902 213:0.47451 214:0.960784 215:0.619608 216:0.717647 217:0.933333 218:0.494118 219:0.894118 220:0.784314 221:0.560784 222:0.960784 223:0.423529 
0.8488741323220124 0.577147798797089 2.027390516073647 0.864904626830718 1.672209986027206 0.9862900232610722 0.9380091719977521 0.8802016267486633 0.5986415044160377 0.5957250371959776 0.2472139393858369 0.6138597844272326 2.463751305159033 0.8249942870941542 0.3530131761756886 0.345880906008927 0.4889030934556805 0.9031800161571542 0.3924569293644198 0.6239777194538337 0.5219378468845825 0.6962578883403833 0.1165407067639639 0.1426037078234826 0.18019438548005 1:0.137255 2:0.890196 3:0.886275 4:0.12549 5:0.12549 6:0.164706 7:0.164706 8:0.109804 9:0.00784314 10:0.14902 11:0.156863 12:0.0156863 16:0.00392157 17:0.486275 18:0.996078 19:0.764706 20:0.85098 21:0.972549 22:0.972549 23:0.807843 24:0.505882 25:0.929412 26:0.94902 27:0.52549 28:0.2 30:0.00392157 32:0.47451 33:0.996078 34:0.996078 35:0.996078 36:1 37:0.996078 38:0.996078 39:0.996078 40:0.996078 41:0.996078 42:0.996078 43:0.501961 44:0.266667 45:0.364706 46:0.0705882 47:0.686275 48:0.996078 49:0.996078 50:0.988235 51:0.988235 52:0.988235 53:0.992157 54:0.996078 55:0.992157 56:0.996078 57:0.996078 58:0.976471 59:0.968627 60:0.470588 61:0.164706 62:0.972549 63:1 64:0.988235 65:0.423529 66:0.239216 67:0.239216 68:0.454902 69:0.843137 70:0.478431 71:0.886275 72:0.917647 73:0.996078 74:0.996078 75:0.529412 76:0.101961 77:0.784314 78:0.996078 79:0.992157 80:0.482353 81:0.0156863 83:0.0156863 84:0.0431373 85:0.0196078 86:0.0705882 87:0.521569 88:0.992157 89:0.996078 90:0.972549 92:0.47451 93:0.996078 94:0.996078 95:0.890196 96:0.0470588 98:0.027451 99:0.0313725 100:0.254902 101:0.72549 102:0.964706 103:0.996078 104:0.996078 105:0.952941 107:0.47451 108:0.996078 109:0.996078 110:0.67451 111:0.0313725 112:0.027451 113:0.501961 114:0.564706 115:0.898039 116:0.996078 117:1 118:0.996078 119:0.996078 120:0.505882 121:0.109804 122:0.807843 123:0.996078 124:0.988235 125:0.243137 127:0.027451 128:0.501961 129:0.929412 130:0.933333 131:0.972549 132:1 133:0.996078 134:0.996078 135:0.47451 136:0.164706 137:0.972549 138:0.996078 139:0.988235 140:0.239216 143:0.027451 144:0.0823529 145:0.0823529 146:0.478431 147:0.784314 148:0.996078 149:0.996078 150:0.623529 151:0.0627451 152:0.662745 153:0.996078 154:0.992157 155:0.65098 156:0.0745098 157:0.0470588 158:0.0470588 159:0.0156863 160:0.0117647 161:0.407843 162:0.717647 163:0.992157 164:0.996078 165:0.996078 167:0.47451 168:0.996078 169:1 170:0.984314 171:0.894118 172:0.890196 173:0.886275 174:0.454902 175:0.423529 176:0.952941 177:1 178:1 179:0.996078 180:0.870588 181:0.572549 182:0.776471 183:0.996078 184:0.996078 185:1 186:1 187:0.996078 188:0.996078 189:0.992157 190:0.992157 191:0.996078 192:1 193:0.996078 194:0.992157 195:0.462745 196:0.996078 197:0.996078 198:0.996078 199:0.996078 200:0.996078 201:0.996078 202:0.996078 203:0.996078 204:0.996078 205:0.996078 206:0.870588 207:0.796078 208:0.796078 209:0.662745 210:0.0745098 211:0.47451 212:0.47451 213:0.47451 214:0.698039 215:0.941176 216:0.498039 217:0.47451 218:0.47451 219:0.823529 220:0.847059 221:0.192157 222:0.0156863 223:0.0156863 224:0.0117647 
1.402174172238197 0.5430515865271782 0.9169424377856625 1.374272713511742 1.270420328134929 1.55493966978937 1.683142105700966 0.5891437693252145 1.153943764917096 1.164238119108655 0.4546250407715783 0.6480125974999486 0.9012073013338325 1.63851596015427 0.3919683628137614 0.9204442018952671 0.8423511515673817 0.7450238941327924 0.391916048071581 1.089348434976616 1.115913589874997 1.440762873355135 1.214902437914275 0.3524272629344951 0.1470652878565759 1:0.721569 2:0.172549 3:0.00392157 16:0.223529 17:0.662745 18:0.305882 19:0.282353 20:0.258824 21:0.0941176 22:0.176471 23:0.00784314 31:0.164706 32:0.901961 33:0.964706 34:0.956863 35:0.913725 36:0.6 37:0.756863 38:0.266667 39:0.0117647 40:0.00784314 46:0.164706 47:0.913725 48:0.992157 49:0.686275 50:0.807843 51:0.866667 52:0.619608 53:0.772549 54:0.576471 55:0.52549 56:0.12549 57:0.0352941 58:0.0352941 59:0.0117647 61:0.164706 62:0.913725 63:0.988235 64:0.435294 65:0.203922 66:0.235294 67:0.105882 68:0.541176 69:0.905882 70:0.894118 71:0.745098 72:0.713725 73:0.705882 74:0.301961 76:0.164706 77:0.913725 78:0.988235 79:0.423529 83:0.0705882 84:0.164706 85:0.223529 86:0.74902 87:0.984314 88:0.988235 89:0.513725 90:0.0470588 91:0.117647 92:0.733333 93:0.980392 94:0.576471 95:0.105882 96:0.235294 97:0.282353 98:0.164706 99:0.164706 100:0.290196 101:0.458824 102:0.945098 103:0.992157 104:0.760784 105:0.176471 106:0.00392157 107:0.184314 108:0.733333 109:0.952941 110:0.615686 111:0.870588 112:0.960784 113:0.737255 114:0.737255 115:0.952941 116:0.956863 117:0.866667 118:0.580392 119:0.262745 120:0.00784314 122:0.0117647 123:0.447059 124:0.94902 125:0.615686 126:0.870588 127:0.972549 128:0.992157 129:0.952941 130:0.576471 131:0.423529 132:0.305882 133:0.0235294 134:0.00392157 137:0.2 138:0.8 139:0.572549 140:0.105882 141:0.235294 142:0.486275 143:0.964706 144:0.623529 145:0.156863 146:0.0117647 152:0.282353 153:0.952941 154:0.423529 157:0.235294 158:0.8 159:0.831373 160:0.772549 161:0.247059 162:0.0117647 167:0.282353 168:0.94902 169:0.423529 172:0.0235294 173:0.0862745 174:0.454902 175:0.909804 176:0.823529 177:0.254902 178:0.00784314 182:0.172549 183:0.733333 184:0.647059 185:0.12549 186:0.00784314 187:0.12549 188:0.231373 189:0.054902 190:0.466667 191:0.921569 192:0.811765 193:0.262745 194:0.00392157 196:0.0941176 197:0.52549 198:0.760784 199:0.972549 200:0.690196 201:0.572549 202:0.678431 203:0.776471 204:0.576471 205:0.615686 206:0.921569 207:0.960784 208:0.545098 209:0.00784314 211:0.164706 212:0.909804 213:0.996078 214:0.996078 215:0.996078 216:0.996078 217:0.796078 218:0.611765 219:0.988235 220:0.996078 221:0.878431 222:0.341176 223:0.160784 
2.864443355712358 2.695710171542074 1.581478166056007 2.393163635383345 0.9980261754878466 2.131377655240534 2.984582183910491 1.781084056444436 1.918998724595828 2.415743507519565 1.840829226185791 1.730345783877607 3.283234808033368 2.667844088799912 0.1637247649380196 1.457115496796786 1.961468912109865 2.048271955013982 1.831445455426431 1.329595160307862 0.8279833818818965 0.6188258958814626 1.564647315193012 0.1156400367578478 0.7963524031539799 4:0.00392157 5:0.145098 6:0.0705882 7:0.101961 8:0.0980392 9:0.0117647 10:0.627451 11:0.0470588 19:0.0156863 20:0.411765 21:0.529412 22:0.803922 23:0.47451 24:0.494118 25:0.458824 26:0.0392157 35:0.156863 36:0.866667 37:0.752941 38:0.054902 39:0.12549 40:0.654902 41:0.537255 50:0.129412 51:0.8 52:0.372549 55:0.352941 56:0.607843 57:0.00784314 65:0.0823529 66:0.745098 67:0.647059 70:0.0823529 71:0.811765 72:0.156863 80:0.0980392 81:0.74902 82:0.352941 85:0.113725 86:0.788235 87:0.137255 95:0.14902 96:0.835294 97:0.482353 100:0.482353 101:0.737255 102:0.0862745 110:0.0156863 111:0.631373 112:0.509804 115:0.45098 116:0.341176 117:0.0784314 125:0.223529 126:0.968627 127:0.803922 128:0.329412 129:0.223529 130:0.423529 131:0.0313725 140:0.239216 141:0.956863 142:0.345098 143:0.709804 144:0.894118 145:0.254902 146:0.00392157 155:0.239216 156:0.960784 157:0.317647 158:0.0941176 159:0.933333 160:0.647059 161:0.027451 170:0.239216 171:0.952941 172:0.235294 173:0.0627451 174:0.929412 175:0.694118 176:0.0313725 185:0.235294 186:0.937255 187:0.0823529 188:0.0627451 189:0.929412 190:0.305882 199:0.00392157 200:0.168627 201:0.705882 202:0.168627 203:0.0627451 204:0.886275 205:0.243137 214:0.290196 215:0.917647 216:0.964706 217:0.533333 218:0.188235 219:0.32549 220:0.00784314 
1.111716927538572 0.0153469019822891 1.220045849026454 1.122557158099838 1.869356853516945 0.982740595565576 0.9314589632993771 0.5903531644007696 0.6319206081313876 0.517565666699448 0 0.6157562246493907 0.8330845788039117 1.556240479092475 0.2011993167847767 0.6698433641032225 0.4950579336395667 1.150192102092893 0.207843082146581 1.492903698474013 0.6921213169689446 0.9789274712649505 0.3911255433812788 0 0.1987532032121215 2:0.0117647 3:0.686275 4:0.635294 5:0.0392157 18:0.0862745 19:0.690196 20:0.592157 21:0.47451 22:0.435294 23:0.0431373 24:0.0156863 33:0.0156863 34:0.498039 35:0.996078 36:0.996078 37:0.980392 38:0.807843 39:0.752941 40:0.188235 41:0.133333 42:0.101961 48:0.129412 49:0.941176 50:0.996078 51:0.839216 52:0.870588 53:0.988235 54:0.984314 55:0.964706 56:0.960784 57:0.733333 58:0.0117647 63:0.133333 64:0.960784 65:1 66:0.623529 67:0.172549 68:0.239216 69:0.282353 70:0.866667 71:0.996078 72:0.941176 73:0.321569 78:0.133333 79:0.960784 80:0.956863 81:0.411765 85:0.207843 86:0.854902 87:0.905882 88:0.266667 93:0.133333 94:0.960784 95:0.968627 96:0.72549 97:0.262745 98:0.0823529 99:0.027451 100:0.203922 101:0.886275 102:0.776471 103:0.0431373 108:0.133333 109:0.960784 110:0.996078 111:0.996078 112:0.94902 113:0.929412 114:0.52549 115:0.517647 116:0.992157 117:0.980392 118:0.396078 123:0.12549 124:0.92549 125:0.92549 126:0.588235 127:0.933333 128:0.933333 129:0.972549 130:0.996078 131:0.996078 132:0.792157 133:0.145098 138:0.0117647 139:0.34902 140:0.635294 141:0.0666667 142:0.0823529 143:0.0862745 144:0.52549 145:0.972549 146:0.964706 147:0.345098 148:0.00392157 152:0.00784314 153:0.454902 154:0.352941 155:0.054902 156:0.0470588 157:0.0117647 159:0.027451 160:0.356863 161:0.780392 162:0.901961 163:0.266667 168:0.0862745 169:0.439216 170:0.890196 171:0.886275 172:0.423529 173:0.239216 174:0.0784314 175:0.25098 176:0.952941 177:0.996078 178:0.423529 184:0.407843 185:0.960784 186:0.976471 187:0.992157 188:0.984314 189:0.709804 190:0.694118 191:0.996078 192:0.988235 193:0.407843 199:0.054902 200:0.133333 201:0.384314 202:0.796078 203:0.796078 204:0.933333 205:0.996078 206:0.996078 207:0.788235 208:0.0666667 216:0.00392157 217:0.0156863 218:0.0156863 219:0.321569 220:0.47451 221:0.8 222:0.756863 223:0.00784314 
0 0.3142093822545891 0 0 0 0 0 0 0 0 0 0 0 0 0 0 0 0 0 0 0 0 0.1049936024812184 0 0 3:0.00784314 4:0.137255 5:0.168627 6:0.682353 7:0.831373 8:0.0470588 10:0.027451 11:0.156863 12:0.164706 13:0.137255 14:0.00784314 18:0.027451 19:0.537255 20:0.929412 21:0.976471 22:0.894118 23:0.403922 24:0.376471 25:0.470588 26:0.921569 27:0.945098 28:0.788235 29:0.0431373 34:0.168627 35:0.945098 36:0.639216 37:0.886275 38:0.964706 39:0.992157 40:0.984314 41:0.94902 42:0.619608 43:0.729412 44:0.0470588 49:0.164706 50:0.941176 51:0.415686 52:0.580392 53:0.447059 54:0.827451 55:0.721569 56:0.196078 57:0.101961 58:0.552941 59:0.0392157 63:0.0156863 64:0.411765 65:0.964706 66:0.592157 67:0.0941176 68:0.0196078 69:0.0470588 70:0.0392157 73:0.0313725 78:0.0156863 79:0.411765 80:0.968627 81:0.945098 82:0.164706 94:0.164706 95:0.94902 96:0.94902 97:0.192157 98:0.0941176 109:0.164706 110:0.94902 111:0.964706 112:0.572549 113:0.705882 114:0.360784 115:0.0666667 123:0.027451 124:0.203922 125:0.94902 126:0.666667 127:0.890196 128:0.94902 129:0.956863 130:0.580392 131:0.027451 137:0.00392157 138:0.423529 139:0.831373 140:0.988235 141:0.901961 142:0.831373 143:0.211765 144:0.580392 145:0.694118 146:0.0392157 153:0.0745098 154:0.835294 155:0.992157 156:0.996078 157:0.831373 158:0.0470588 159:0.027451 160:0.0392157 168:0.0156863 169:0.313725 170:0.376471 171:0.733333 172:0.792157 173:0.0431373 176:0.0156863 177:0.0156863 186:0.101961 187:0.137255 188:0.00784314 189:0.101961 190:0.164706 191:0.411765 192:0.411765 193:0.137255 194:0.00784314 202:0.0666667 203:0.352941 204:0.513725 205:0.886275 206:0.964706 207:0.960784 208:0.784314 209:0.0431373 216:0.388235 217:0.580392 218:0.380392 219:0.192157 220:0.831373 221:0.764706 222:0.380392 223:0.313725 224:0.0156863 
0 0 0.3424021457175079 0 0 0 0 0 0 0 0 0 0 0.007221365791285971 0 0 0 0.1622535158746452 0 0.03315716175762737 0.108205794732344 0 0.02284840742142858 0 0 2:0.00392157 3:0.14902 4:0.0470588 5:0.0666667 6:0.027451 7:0.0862745 8:0.0117647 9:0.101961 10:0.0745098 11:0.137255 12:0.0352941 13:0.67451 14:0.152941 15:0.00392157 17:0.0117647 18:0.541176 19:0.686275 20:0.72549 21:0.635294 22:0.780392 23:0.607843 24:0.835294 25:0.764706 26:0.917647 27:0.592157 28:0.956863 29:0.541176 30:0.0117647 33:0.282353 34:0.917647 35:0.384314 36:0.607843 37:0.45098 38:0.713725 39:0.713725 40:0.713725 41:0.713725 42:0.713725 43:0.713725 44:0.2 48:0.282353 49:0.909804 50:0.0352941 63:0.290196 64:0.909804 65:0.0352941 77:0.0235294 78:0.701961 79:0.913725 80:0.0352941 92:0.0196078 93:0.313725 94:0.909804 95:0.0352941 98:0.0196078 100:0.0156863 101:0.00392157 102:0.0117647 107:0.521569 108:0.937255 109:0.937255 110:0.305882 111:0.282353 112:0.305882 113:0.678431 114:0.337255 115:0.619608 116:0.388235 117:0.380392 122:0.188235 123:0.937255 124:0.992157 125:0.905882 126:0.490196 127:0.882353 128:0.513725 129:0.458824 130:0.54902 131:0.807843 132:0.12549 137:0.0196078 138:0.643137 139:0.913725 140:0.0666667 141:0.0117647 142:0.0313725 143:0.0117647 144:0.00784314 145:0.0117647 146:0.027451 153:0.235294 154:0.862745 155:0.0352941 168:0.164706 169:0.796078 170:0.0352941 183:0.282353 184:0.909804 185:0.0352941 197:0.0705882 198:0.741176 199:0.972549 200:0.454902 201:0.188235 202:0.345098 203:0.0823529 204:0.0823529 205:0.0823529 206:0.0823529 207:0.0823529 208:0.0823529 209:0.0235294 212:0.537255 213:0.72549 214:0.996078 215:0.984314 216:0.898039 217:0.8 218:0.843137 219:0.843137 220:0.784314 221:0.890196 222:0.733333 223:0.92549 224:0.270588 
-0.3078396258816867 0.5304028781666319 0 0.3191784895688072 0.2471485988991319 0.851796320376774 1.430395032997554 0.2571080650784925 0 0.851262964641298 0.7429353040034303 0.08912586205632435 0.1148986347087212 0.1009437337695139 0.09917086894229868 0.4255321733110973 0.3390178100395394 0 0 0.2384715272901962 0.4434498429349902 0.1090763289762687 0.3725753453110462 0.2897915186667562 0 7:0.0117647 8:0.0666667 10:0.101961 12:0.0823529 13:0.419608 14:0.156863 15:0.0117647 16:0.101961 17:0.627451 18:0.333333 19:0.643137 20:0.458824 21:0.160784 22:0.658824 23:0.827451 24:0.368627 25:0.407843 26:0.537255 27:0.45098 28:0.235294 29:0.905882 30:0.0823529 31:0.0901961 32:0.545098 33:0.454902 34:0.215686 35:0.407843 36:0.372549 37:0.231373 38:0.713725 39:0.34902 40:0.45098 41:0.529412 42:0.180392 43:0.396078 44:0.423529 45:0.419608 46:0.00392157 47:0.0705882 48:0.423529 49:0.643137 50:0.560784 51:0.509804 52:0.658824 53:0.435294 54:0.658824 55:0.698039 56:0.533333 57:0.760784 58:0.427451 59:0.427451 60:0.0588235 62:0.00392157 63:0.0823529 64:0.462745 65:0.109804 66:0.133333 67:0.505882 68:0.0901961 69:0.203922 70:0.231373 71:0.0823529 72:0.560784 73:0.811765 74:0.486275 75:0.0823529 79:0.419608 80:0.741176 81:0.74902 82:0.282353 83:0.470588 84:0.733333 85:0.411765 86:0.137255 87:0.0705882 88:0.72549 89:0.72549 90:0.0705882 94:0.152941 95:0.133333 96:0.211765 97:0.713725 98:0.603922 99:0.670588 100:0.341176 101:0.164706 109:0.407843 110:0.376471 111:0.278431 112:0.466667 113:0.733333 114:0.513725 115:0.494118 116:0.0705882 124:0.419608 125:0.552941 126:0.6 127:0.290196 128:0.333333 129:0.435294 130:0.0588235 139:0.411765 140:0.286275 141:0.286275 142:0.733333 143:0.619608 144:0.254902 145:0.262745 146:0.14902 154:0.415686 155:0.423529 156:0.858824 157:0.282353 158:0.478431 159:0.823529 160:0.458824 161:0.164706 162:0.117647 163:0.164706 164:0.164706 165:0.0117647 168:0.0470588 169:0.466667 170:0.341176 171:0.388235 172:0.258824 173:0.152941 174:0.176471 175:0.282353 176:0.0588235 177:0.631373 178:0.662745 179:0.596078 180:0.0823529 182:0.407843 183:0.756863 184:0.690196 185:0.235294 186:0.537255 187:0.541176 188:0.572549 189:0.572549 190:0.505882 191:0.611765 192:0.694118 193:0.733333 194:0.745098 195:0.0823529 197:0.403922 198:0.47451 199:0.937255 200:0.0941176 201:0.101961 202:0.152941 203:0.572549 204:0.580392 205:0.611765 206:0.266667 207:0.45098 208:0.52549 209:0.572549 210:0.0470588 212:0.427451 213:0.556863 214:0.258824 215:0.00392157 216:0.0588235 217:0.360784 218:0.603922 219:0.615686 220:0.568627 221:0.47451 222:0.466667 223:0.670588 224:0.490196 225:0.0235294 
0 0 0 0 0 0 0 0 0 0.3733822857029434 0 0 0 0 0 0 0 0 0 0.09666200804046934 0 0 0 0 0 2:0.0509804 3:0.0784314 4:0.117647 5:0.164706 6:0.164706 7:0.164706 8:0.254902 9:0.905882 10:0.996078 11:1 12:0.862745 13:0.0823529 17:0.301961 18:0.611765 19:0.760784 20:0.933333 21:0.933333 22:0.933333 23:0.941176 24:0.992157 25:0.996078 26:0.996078 27:0.905882 28:0.290196 29:0.00784314 32:0.156863 33:0.717647 34:0.984314 35:1 36:1 37:1 38:1 39:1 40:1 41:1 42:0.996078 43:0.709804 44:0.0352941 48:0.164706 49:0.796078 50:0.996078 51:1 52:1 53:1 54:1 55:0.996078 56:1 57:0.996078 58:0.894118 59:0.337255 63:0.0235294 64:0.713725 65:0.996078 66:0.996078 67:0.992157 68:0.843137 69:0.796078 70:0.796078 71:0.796078 72:0.796078 73:0.607843 74:0.0862745 78:0.211765 79:0.819608 80:0.996078 81:1 82:0.976471 83:0.560784 84:0.423529 85:0.419608 86:0.192157 87:0.0509804 88:0.0352941 93:0.517647 94:0.992157 95:1 96:1 97:0.996078 98:0.988235 99:0.988235 100:0.984314 101:0.729412 102:0.494118 103:0.0470588 108:0.521569 109:0.996078 110:0.996078 111:1 112:1 113:1 114:1 115:0.996078 116:0.996078 117:0.862745 118:0.0823529 123:0.403922 124:0.929412 125:1 126:1 127:0.996078 128:0.996078 129:0.996078 130:0.996078 131:0.996078 132:0.894118 133:0.235294 134:0.00392157 138:0.0431373 139:0.72549 140:0.996078 141:1 142:0.984314 143:0.67451 144:0.572549 145:0.572549 146:0.572549 147:0.568627 148:0.388235 149:0.0117647 153:0.0470588 154:0.729412 155:0.996078 156:1 157:0.964706 158:0.282353 159:0.054902 160:0.054902 161:0.054902 162:0.054902 163:0.0509804 164:0.0235294 168:0.423529 169:0.941176 170:0.996078 171:1 172:0.992157 173:0.843137 174:0.796078 175:0.796078 176:0.796078 177:0.796078 178:0.756863 179:0.34902 183:0.521569 184:0.996078 185:0.996078 186:1 187:1 188:0.996078 189:1 190:0.996078 191:0.996078 192:0.996078 193:0.737255 194:0.0666667 198:0.513725 199:0.980392 200:0.996078 201:1 202:1 203:1 204:1 205:0.996078 206:1 207:0.996078 208:0.713725 209:0.0235294 213:0.172549 214:0.384314 215:0.905882 216:1 217:1 218:1 219:1 220:0.996078 221:1 222:0.996078 223:0.713725 224:0.0235294 
-0.8018035364718419 0.06214885197366406 1.706109730463389 0.4802300270704322 1.375145448803447 0.4351786302513215 1.303907020227189 0.9162703606005908 0.2718826589574214 0.2091031647352082 0 0.1105666367232118 1.359057400005199 0.3299428149686074 0 0 0.1054844188773048 0.6485653913993413 0.2184698055765433 0.6227752746594013 0 0.3642945585645118 0 0.04859911103707917 0 3:0.0627451 4:0.137255 5:0.623529 6:1 7:0.858824 8:0.168627 9:0.164706 10:0.054902 11:0.164706 12:0.164706 13:0.164706 14:0.0627451 18:0.372549 19:0.835294 20:0.647059 21:1 22:0.996078 23:0.992157 24:0.988235 25:0.745098 26:0.988235 27:0.992157 28:0.984314 29:0.352941 33:0.376471 34:0.988235 35:0.980392 36:1 37:0.996078 38:0.996078 39:1 40:0.996078 41:0.996078 42:0.996078 43:0.839216 44:0.0235294 47:0.517647 48:0.894118 49:0.996078 50:0.996078 51:0.933333 52:0.858824 53:0.894118 54:0.831373 55:0.831373 56:0.831373 57:0.831373 58:0.831373 59:0.313725 62:0.592157 63:0.996078 64:0.996078 65:0.996078 66:0.623529 67:0.0666667 68:0.141176 69:0.00392157 70:0.00392157 71:0.00392157 72:0.00392157 73:0.0666667 74:0.137255 77:0.0784314 78:0.952941 79:1 80:1 81:0.764706 82:0.376471 83:0.376471 84:0.376471 85:0.313725 86:0.239216 87:0.235294 88:0.00392157 92:0.52549 93:0.988235 94:0.996078 95:0.996078 96:1 97:0.996078 98:0.901961 99:0.988235 100:0.968627 101:0.937255 102:0.933333 103:0.831373 104:0.407843 105:0.00784314 107:0.619608 108:0.996078 109:0.894118 110:0.376471 111:0.376471 112:0.376471 113:0.160784 114:0.356863 115:0.478431 116:0.996078 117:1 118:1 119:0.615686 120:0.0196078 121:0.0627451 122:0.760784 123:0.996078 124:0.584314 130:0.168627 131:0.992157 132:1 133:1 134:0.937255 135:0.262745 136:0.164706 137:0.992157 138:0.996078 139:0.74902 140:0.168627 141:0.164706 142:0.164706 143:0.164706 144:0.168627 145:0.74902 146:0.996078 147:1 148:0.996078 149:0.988235 150:0.52549 151:0.0627451 152:0.760784 153:0.996078 154:0.996078 155:0.992157 156:0.992157 157:0.992157 158:0.992157 159:0.992157 160:0.996078 161:1 162:1 163:1 164:0.94902 165:0.0509804 166:0.368627 167:0.760784 168:0.996078 169:1 170:0.996078 171:1 172:1 173:1 174:1 175:1 176:1 177:1 178:1 179:0.968627 180:0.258824 181:0.164706 182:0.588235 183:0.988235 184:0.996078 185:0.996078 186:1 187:0.996078 188:1 189:1 190:0.996078 191:1 192:1 193:0.996078 194:0.956863 195:0.141176 197:0.0196078 198:0.592157 199:1 200:0.996078 201:1 202:1 203:1 204:1 205:1 206:1 207:0.996078 208:0.862745 209:0.360784 210:0.0156863 213:0.231373 214:0.619608 215:0.619608 216:0.623529 217:0.933333 218:1 219:1 220:1 221:0.980392 222:0.635294 223:0.133333 
0 1.122639931254036 0 0 0 0 0 0 0 0 0 0 0 0 0 0 0 0 0 0 0 0 0 0 0 5:0.105882 6:0.0705882 7:0.164706 8:0.113725 9:0.670588 10:0.996078 11:0.94902 12:0.105882 19:0.00784314 20:0.670588 21:0.686275 22:0.972549 23:0.811765 24:0.815686 25:0.980392 26:0.941176 27:0.105882 35:0.239216 36:0.956863 37:0.988235 38:0.870588 39:0.419608 40:0.2 41:0.568627 42:0.0901961 50:0.105882 51:0.94902 52:0.917647 53:0.0980392 54:0.0117647 56:0.0196078 65:0.105882 66:0.94902 67:0.921569 68:0.129412 80:0.105882 81:0.94902 82:0.960784 83:0.411765 95:0.105882 96:0.94902 97:0.913725 98:0.0941176 99:0.0823529 100:0.0588235 110:0.105882 111:0.94902 112:0.941176 113:0.568627 114:0.92549 115:0.666667 116:0.00392157 125:0.105882 126:0.94902 127:0.992157 128:0.737255 129:0.329412 130:0.235294 140:0.105882 141:0.94902 142:0.921569 143:0.113725 155:0.105882 156:0.94902 157:0.913725 158:0.0627451 170:0.105882 171:0.94902 172:0.913725 173:0.0627451 185:0.105882 186:0.94902 187:0.917647 188:0.0980392 189:0.0313725 191:0.0196078 200:0.105882 201:0.94902 202:0.988235 203:0.870588 204:0.819608 205:0.258824 206:0.568627 207:0.0901961 215:0.0509804 216:0.45098 217:0.803922 218:0.505882 219:0.505882 220:0.788235 221:0.447059 222:0.0509804 
-0.2410658336169642 0 0 0.3440864911168979 0 0.05245611257834032 0.7776939213694656 0 0.6530370826125506 0 0 0.06321822701181093 0.9353482679155771 0.472174147640575 0.04746046289388434 0.3914424550900062 0.1135751572889213 0.006897959377490782 0 0.4925639742844238 0.2452621618727318 0.5825057535003897 0 0 0 3:0.00784314 4:0.137255 5:0.478431 6:0.992157 7:0.996078 8:0.619608 9:0.00392157 18:0.262745 19:0.854902 20:0.968627 21:0.996078 22:1 23:0.619608 24:0.00392157 32:0.00392157 33:0.619608 34:0.996078 35:0.980392 36:0.94902 37:0.94902 38:0.592157 39:0.00392157 47:0.00392157 48:0.619608 49:0.968627 50:0.588235 51:0.168627 52:0.164706 53:0.101961 62:0.00392157 63:0.619608 64:0.839216 65:0.0745098 77:0.00392157 78:0.619608 79:0.831373 80:0.0470588 92:0.00392157 93:0.619608 94:0.831373 95:0.0470588 107:0.145098 108:0.760784 109:0.894118 110:0.403922 111:0.376471 112:0.376471 113:0.376471 114:0.376471 115:0.376471 116:0.376471 117:0.356863 118:0.0666667 122:0.372549 123:0.988235 124:0.996078 125:0.992157 126:0.992157 127:0.992157 128:0.992157 129:0.992157 130:0.992157 131:0.992157 132:0.972549 133:0.588235 134:0.0588235 137:0.376471 138:0.992157 139:0.996078 140:1 141:0.996078 142:0.996078 143:1 144:1 145:0.996078 146:1 147:1 148:0.968627 149:0.52549 150:0.00392157 152:0.235294 153:0.85098 154:0.937255 155:0.643137 156:0.619608 157:0.619608 158:0.619608 159:0.619608 160:0.619608 161:0.623529 162:0.854902 163:1 164:0.619608 165:0.00392157 167:0.00784314 168:0.623529 169:0.937255 170:0.431373 171:0.0588235 172:0.054902 173:0.054902 174:0.054902 175:0.054902 176:0.0588235 177:0.643137 178:1 179:0.619608 180:0.00392157 182:0.00392157 183:0.619608 184:0.996078 185:0.933333 186:0.831373 187:0.831373 188:0.831373 189:0.831373 190:0.831373 191:0.831373 192:0.933333 193:0.968627 194:0.52549 195:0.00392157 198:0.403922 199:0.929412 200:0.996078 201:0.996078 202:1 203:1 204:1 205:1 206:1 207:0.996078 208:0.835294 209:0.0745098 213:0.0196078 214:0.313725 215:0.607843 216:0.996078 217:1 218:1 219:1 220:1 221:1 222:0.968627 223:0.415686 224:0.0156863 
